{"learner":{"attributes":{"scikit_learn":"{\"_estimator_type\": \"classifier\"}"},"feature_names":["Age","Income","Existing_Equity_Holdings","Existing_Bond_Holdings","Total_AUM","Num_Other_Products","Last_Investment_Days_Ago","Bond_Coupon_Rate","Bond_Maturity_Years","Bond_Min_Investment","Debt_to_Income_Ratio","Portfolio_Fixed_Income_Percent","Education_Bachelors","Education_High School","Education_Masters","Education_PhD","Risk_Tolerance_Aggressive","Risk_Tolerance_Conservative","Risk_Tolerance_Moderate","Online_Platform_Usage_Freq_High","Online_Platform_Usage_Freq_Low","Online_Platform_Usage_Freq_Medium","Bond_Credit_Rating_A","Bond_Credit_Rating_AA","Bond_Credit_Rating_AAA"],"feature_types":["int","int","int","int","float","int","int","float","int","int","float","float","float","float","float","float","float","float","float","float","float","float","float","float","float"],"gradient_booster":{"model":{"gbtree_model_param":{"num_parallel_tree":"1","num_trees":"198"},"iteration_indptr":[0,1,2,3,4,5,6,7,8,9,10,11,12,13,14,15,16,17,18,19,20,21,22,23,24,25,26,27,28,29,30,31,32,33,34,35,36,37,38,39,40,41,42,43,44,45,46,47,48,49,50,51,52,53,54,55,56,57,58,59,60,61,62,63,64,65,66,67,68,69,70,71,72,73,74,75,76,77,78,79,80,81,82,83,84,85,86,87,88,89,90,91,92,93,94,95,96,97,98,99,100,101,102,103,104,105,106,107,108,109,110,111,112,113,114,115,116,117,118,119,120,121,122,123,124,125,126,127,128,129,130,131,132,133,134,135,136,137,138,139,140,141,142,143,144,145,146,147,148,149,150,151,152,153,154,155,156,157,158,159,160,161,162,163,164,165,166,167,168,169,170,171,172,173,174,175,176,177,178,179,180,181,182,183,184,185,186,187,188,189,190,191,192,193,194,195,196,197,198],"tree_info":[0,0,0,0,0,0,0,0,0,0,0,0,0,0,0,0,0,0,0,0,0,0,0,0,0,0,0,0,0,0,0,0,0,0,0,0,0,0,0,0,0,0,0,0,0,0,0,0,0,0,0,0,0,0,0,0,0,0,0,0,0,0,0,0,0,0,0,0,0,0,0,0,0,0,0,0,0,0,0,0,0,0,0,0,0,0,0,0,0,0,0,0,0,0,0,0,0,0,0,0,0,0,0,0,0,0,0,0,0,0,0,0,0,0,0,0,0,0,0,0,0,0,0,0,0,0,0,0,0,0,0,0,0,0,0,0,0,0,0,0,0,0,0,0,0,0,0,0,0,0,0,0,0,0,0,0,0,0,0,0,0,0,0,0,0,0,0,0,0,0,0,0,0,0,0,0,0,0,0,0,0,0,0,0,0,0,0,0,0,0,0,0,0,0,0,0,0,0],"trees":[{"base_weights":[-1.3613128E-2,-6.63496E-1,2.7092203E-1,-4.742676E-1,-8.741022E-2,4.2690766E-1,-6.2565607E-1,-1.9339724E-4,-5.2256953E-2,3.425731E-2,1.5244257E-3,-4.6008475E-2,1.4900627E-3],"categories":[],"categories_nodes":[],"categories_segments":[],"categories_sizes":[],"default_left":[0,0,0,0,0,0,0,0,0,0,0,0,0],"id":0,"left_children":[1,3,5,7,-1,9,11,-1,-1,-1,-1,-1,-1],"loss_changes":[5.8937946E2,2.0830234E2,3.1105463E2,2.45091E2,0E0,2.1640314E2,7.402806E1,0E0,0E0,0E0,0E0,0E0,0E0],"parents":[2147483647,0,0,1,1,2,2,3,3,5,5,6,6],"right_children":[2,4,6,8,-1,10,12,-1,-1,-1,-1,-1,-1],"split_conditions":[3.781575E6,1E0,1E0,1E0,-8.741022E-2,1E0,8.26529E6,-1.9339724E-4,-5.2256953E-2,3.425731E-2,1.5244257E-3,-4.6008475E-2,1.4900627E-3],"split_indices":[3,16,16,18,0,18,3,0,0,0,0,0,0],"split_type":[0,0,0,0,0,0,0,0,0,0,0,0,0],"sum_hessian":[3.1755E3,9.655833E2,2.2099167E3,8.3775E2,1.27833336E2,1.8854166E3,3.245E2,4.8016666E2,3.5758334E2,1.0826666E3,8.0275E2,2.1333333E2,1.11166664E2],"tree_param":{"num_deleted":"0","num_feature":"25","num_nodes":"13","size_leaf_vector":"1"}},{"base_weights":[3.818966E-3,-4.6417457E-1,4.8551986E-1,-1.1499511E0,-1.6633369E-2,-1.6938803E-1,6.543437E-1,-8.249534E-2,-3.3268277E-2,-2.3961369E-2,1.7227467E-2,-3.4341875E-2,1.1325129E-2,1.1500876E-2,3.545832E-2],"categories":[],"categories_nodes":[],"categories_segments":[],"categories_sizes":[],"default_left":[0,0,0,0,0,0,0,0,0,0,0,0,0,0,0],"id":1,"left_children":[1,3,5,7,9,11,13,-1,-1,-1,-1,-1,-1,-1,-1],"loss_changes":[7.2458246E2,4.9920972E2,1.7611734E2,1.6035065E2,1.827551E2,7.4589676E1,4.447516E1,0E0,0E0,0E0,0E0,0E0,0E0,0E0,0E0],"parents":[2147483647,0,0,1,1,2,2,3,3,4,4,5,5,6,6],"right_children":[2,4,6,8,10,12,14,-1,-1,-1,-1,-1,-1,-1,-1],"split_conditions":[1E0,4.763531E6,2.676372E6,1E0,1E0,8.16412E5,3.5066E5,-8.249534E-2,-3.3268277E-2,-2.3961369E-2,1.7227467E-2,-3.4341875E-2,1.1325129E-2,1.1500876E-2,3.545832E-2],"split_indices":[17,3,3,24,24,1,1,0,0,0,0,0,0,0,0],"split_type":[0,0,0,0,0,0,0,0,0,0,0,0,0,0,0],"sum_hessian":[3.2036511E3,1.6243046E3,1.5793466E3,6.375678E2,9.8673676E2,3.2283334E2,1.2565132E3,2.730191E2,3.6454868E2,4.3178918E2,5.549476E2,1.3625E2,1.8658333E2,2.2610751E2,1.0304056E3],"tree_param":{"num_deleted":"0","num_feature":"25","num_nodes":"15","size_leaf_vector":"1"}},{"base_weights":[-2.084881E-2,-4.6112296E-1,4.3491E-1,-1.1012295E0,-3.255456E-2,-1.9745186E-1,6.046957E-1,-7.7187404E-2,-3.328457E-2,-2.3152541E-2,1.52928E-2,-3.1712938E-2,1.1536846E-2,1.8738817E-2,3.731368E-2],"categories":[],"categories_nodes":[],"categories_segments":[],"categories_sizes":[],"default_left":[0,0,0,0,0,0,0,0,0,0,0,0,0,0,0],"id":2,"left_children":[1,3,5,7,9,11,13,-1,-1,-1,-1,-1,-1,-1,-1],"loss_changes":[6.392774E2,4.4373093E2,1.6890714E2,1.27730774E2,1.5690602E2,6.965369E1,4.3950836E1,0E0,0E0,0E0,0E0,0E0,0E0,0E0,0E0],"parents":[2147483647,0,0,1,1,2,2,3,3,4,4,5,5,6,6],"right_children":[2,4,6,8,10,12,14,-1,-1,-1,-1,-1,-1,-1,-1],"split_conditions":[1E0,4.841803E6,2.786946E6,1E0,1E0,8.87876E5,1E0,-7.7187404E-2,-3.328457E-2,-2.3152541E-2,1.52928E-2,-3.1712938E-2,1.1536846E-2,1.8738817E-2,3.731368E-2],"split_indices":[17,3,3,24,24,1,24,0,0,0,0,0,0,0,0],"split_type":[0,0,0,0,0,0,0,0,0,0,0,0,0,0,0],"sum_hessian":[3.1753374E3,1.6158561E3,1.5594813E3,6.4405383E2,9.718022E2,3.2903232E2,1.230449E3,2.7531635E2,3.687375E2,4.2586145E2,5.4594073E2,1.589567E2,1.7007564E2,5.688552E2,6.615938E2],"tree_param":{"num_deleted":"0","num_feature":"25","num_nodes":"15","size_leaf_vector":"1"}},{"base_weights":[-9.045556E-3,-4.505799E-1,4.3645486E-1,-1.0940078E0,-3.2838676E-2,-1.838312E-1,5.973787E-1,-6.817813E-2,-3.7274595E-2,-1.3844519E-2,1.3918209E-2,-3.546853E-2,1.0880785E-2,9.7165555E-3,3.2474954E-2],"categories":[],"categories_nodes":[],"categories_segments":[],"categories_sizes":[],"default_left":[0,0,0,0,0,0,0,0,0,0,0,0,0,0,0],"id":3,"left_children":[1,3,5,7,9,11,13,-1,-1,-1,-1,-1,-1,-1,-1],"loss_changes":[6.278447E2,4.3009216E2,1.5937836E2,5.8598083E1,8.20587E1,7.72663E1,3.9868774E1,0E0,0E0,0E0,0E0,0E0,0E0,0E0,0E0],"parents":[2147483647,0,0,1,1,2,2,3,3,4,4,5,5,6,6],"right_children":[2,4,6,8,10,12,14,-1,-1,-1,-1,-1,-1,-1,-1],"split_conditions":[1E0,4.763531E6,2.719009E6,2.440859E6,9.23275E5,8.16412E5,3.5066E5,-6.817813E-2,-3.7274595E-2,-1.3844519E-2,1.3918209E-2,-3.546853E-2,1.0880785E-2,9.7165555E-3,3.2474954E-2],"split_indices":[17,3,3,3,1,1,1,0,0,0,0,0,0,0,0],"split_type":[0,0,0,0,0,0,0,0,0,0,0,0,0,0,0],"sum_hessian":[3.1813135E3,1.5985283E3,1.582785E3,6.252836E2,9.7324475E2,3.249927E2,1.2577922E3,2.9249344E2,3.327902E2,5.44387E2,4.288577E2,1.3676837E2,1.8822435E2,2.2320836E2,1.0345839E3],"tree_param":{"num_deleted":"0","num_feature":"25","num_nodes":"15","size_leaf_vector":"1"}},{"base_weights":[3.21165E-3,-4.0275845E-1,4.1905472E-1,-1.0047247E0,-9.835147E-3,-2.6317015E-1,5.2916515E-1,-7.1915455E-2,-2.9950658E-2,-2.0343103E-2,1.55793E-2,-3.3325206E-2,4.106454E-3,1.5384568E-2,3.325376E-2],"categories":[],"categories_nodes":[],"categories_segments":[],"categories_sizes":[],"default_left":[0,0,0,0,0,0,0,0,0,0,0,0,0,0,0],"id":4,"left_children":[1,3,5,7,9,11,13,-1,-1,-1,-1,-1,-1,-1,-1],"loss_changes":[5.419131E2,3.8321985E2,1.20094666E2,1.1478882E2,1.3908955E2,3.4618565E1,4.5512177E1,0E0,0E0,0E0,0E0,0E0,0E0,0E0,0E0],"parents":[2147483647,0,0,1,1,2,2,3,3,4,4,5,5,6,6],"right_children":[2,4,6,8,10,12,14,-1,-1,-1,-1,-1,-1,-1,-1],"split_conditions":[1E0,9.452892E6,6.514035E6,1E0,1E0,4.5E1,1E0,-7.1915455E-2,-2.9950658E-2,-2.0343103E-2,1.55793E-2,-3.3325206E-2,4.106454E-3,1.5384568E-2,3.325376E-2],"split_indices":[17,4,4,24,24,0,24,0,0,0,0,0,0,0,0],"split_type":[0,0,0,0,0,0,0,0,0,0,0,0,0,0,0],"sum_hessian":[3.199475E3,1.6181874E3,1.5812878E3,6.3516736E2,9.8301996E2,2.1785591E2,1.363432E3,2.6517172E2,3.6999564E2,4.3948334E2,5.435366E2,9.558913E1,1.2226678E2,6.184103E2,7.4502167E2],"tree_param":{"num_deleted":"0","num_feature":"25","num_nodes":"15","size_leaf_vector":"1"}},{"base_weights":[9.0945745E-4,-3.8824683E-1,4.0229845E-1,-9.6638215E-1,-1.58222E-2,-1.8760553E-1,5.5361754E-1,-7.056173E-2,-2.7536627E-2,-2.0100066E-2,1.4528012E-2,-3.745194E-2,1.1178087E-2,7.829182E-3,3.0282687E-2],"categories":[],"categories_nodes":[],"categories_segments":[],"categories_sizes":[],"default_left":[0,0,0,0,0,0,0,0,0,0,0,0,0,0,0],"id":5,"left_children":[1,3,5,7,9,11,13,-1,-1,-1,-1,-1,-1,-1,-1],"loss_changes":[4.996357E2,3.4871558E2,1.4142741E2,1.2069342E2,1.2959381E2,8.305226E1,3.8385376E1,0E0,0E0,0E0,0E0,0E0,0E0,0E0,0E0],"parents":[2147483647,0,0,1,1,2,2,3,3,4,4,5,5,6,6],"right_children":[2,4,6,8,10,12,14,-1,-1,-1,-1,-1,-1,-1,-1],"split_conditions":[1E0,4.763531E6,2.719009E6,1E0,1E0,8.16412E5,3.5066E5,-7.056173E-2,-2.7536627E-2,-2.0100066E-2,1.4528012E-2,-3.745194E-2,1.1178087E-2,7.829182E-3,3.0282687E-2],"split_indices":[17,3,3,24,24,1,1,0,0,0,0,0,0,0,0],"split_type":[0,0,0,0,0,0,0,0,0,0,0,0,0,0,0],"sum_hessian":[3.1881003E3,1.6179172E3,1.5701831E3,6.298851E2,9.8803217E2,3.193484E2,1.2508347E3,2.65203E2,3.6468207E2,4.3631372E2,5.5171844E2,1.3104608E2,1.883023E2,2.1880919E2,1.0320255E3],"tree_param":{"num_deleted":"0","num_feature":"25","num_nodes":"15","size_leaf_vector":"1"}},{"base_weights":[-4.3037552E-3,-3.6774886E-1,3.6616176E-1,-9.212313E-1,-3.099093E-3,-1.7824885E-1,5.0596815E-1,-3.384551E-2,-6.918387E-2,5.9821466E-3,-2.8776744E-2,4.946092E-4,-3.399002E-2,1.3697907E-2,3.031002E-2],"categories":[],"categories_nodes":[],"categories_segments":[],"categories_sizes":[],"default_left":[0,0,0,0,0,0,0,0,0,0,0,0,0,0,0],"id":6,"left_children":[1,3,5,7,9,11,13,-1,-1,-1,-1,-1,-1,-1,-1],"loss_changes":[4.28539E2,3.237793E2,1.20595474E2,6.457788E1,7.58093E1,3.3216587E1,3.3860687E1,0E0,0E0,0E0,0E0,0E0,0E0,0E0,0E0],"parents":[2147483647,0,0,1,1,2,2,3,3,4,4,5,5,6,6],"right_children":[2,4,6,8,10,12,14,-1,-1,-1,-1,-1,-1,-1,-1],"split_conditions":[1E0,4.841803E6,2.676372E6,1E0,1E0,1E0,4.2E1,-3.384551E-2,-6.918387E-2,5.9821466E-3,-2.8776744E-2,4.946092E-4,-3.399002E-2,1.3697907E-2,3.031002E-2],"split_indices":[17,3,3,16,22,23,0,0,0,0,0,0,0,0,0],"split_type":[0,0,0,0,0,0,0,0,0,0,0,0,0,0,0],"sum_hessian":[3.1722837E3,1.6022882E3,1.5699955E3,6.324371E2,9.698511E2,3.1948032E2,1.2505151E3,4.607388E2,1.7169827E2,8.0125525E2,1.6859586E2,2.3888129E2,8.059902E1,4.7155203E2,7.7896313E2],"tree_param":{"num_deleted":"0","num_feature":"25","num_nodes":"15","size_leaf_vector":"1"}},{"base_weights":[2.2846297E-4,1.3542055E-1,-7.990684E-1,-4.415942E-1,2.8560668E-1,-1.373568E0,-1.9078979E-1,1.3611121E-3,-3.1747364E-2,-1.02545675E-2,1.7236076E-2,-1.8957531E-2,-6.712276E-2,-4.8423387E-2,1.8020077E-3],"categories":[],"categories_nodes":[],"categories_segments":[],"categories_sizes":[],"default_left":[0,0,0,0,0,0,0,0,0,0,0,0,0,0,0],"id":7,"left_children":[1,3,5,7,9,11,13,-1,-1,-1,-1,-1,-1,-1,-1],"loss_changes":[3.4330563E2,2.3642377E2,1.5810535E2,5.969306E1,8.21756E1,3.245636E0,4.414232E1,0E0,0E0,0E0,0E0,0E0,0E0,0E0,0E0],"parents":[2147483647,0,0,1,1,2,2,3,3,4,4,5,5,6,6],"right_children":[2,4,6,8,10,12,14,-1,-1,-1,-1,-1,-1,-1,-1],"split_conditions":[1E0,7.375804E6,1.1003258E7,8.06053E5,3.4505114E-1,1.2732664E-1,4.9325824E-1,1.3611121E-3,-3.1747364E-2,-1.02545675E-2,1.7236076E-2,-1.8957531E-2,-6.712276E-2,-4.8423387E-2,1.8020077E-3],"split_indices":[16,4,4,2,11,10,11,0,0,0,0,0,0,0,0],"split_type":[0,0,0,0,0,0,0,0,0,0,0,0,0,0,0],"sum_hessian":[3.170859E3,2.7165994E3,4.5425943E2,5.579891E2,2.1586104E3,2.2963809E2,2.2462134E2,1.8020227E2,3.777868E2,2.8025845E2,1.8783519E3,1.0296112E1,2.1934198E2,4.5552055E1,1.7906929E2],"tree_param":{"num_deleted":"0","num_feature":"25","num_nodes":"15","size_leaf_vector":"1"}},{"base_weights":[6.813245E-3,-3.4758E-1,3.6320496E-1,-8.865054E-1,-1.0839287E-2,-1.6980011E-2,5.372216E-1,-6.471698E-2,-2.5351563E-2,-1.7277312E-2,1.2965261E-2,-1.7672185E-2,1.2324545E-2,1.6719108E-2,3.303301E-2],"categories":[],"categories_nodes":[],"categories_segments":[],"categories_sizes":[],"default_left":[0,0,0,0,0,0,0,0,0,0,0,0,0,0,0],"id":8,"left_children":[1,3,5,7,9,11,13,-1,-1,-1,-1,-1,-1,-1,-1],"loss_changes":[4.0342722E2,2.8979092E2,1.0583345E2,9.7401794E1,9.8843735E1,4.956801E1,2.9668304E1,0E0,0E0,0E0,0E0,0E0,0E0,0E0,0E0],"parents":[2147483647,0,0,1,1,2,2,3,3,4,4,5,5,6,6],"right_children":[2,4,6,8,10,12,14,-1,-1,-1,-1,-1,-1,-1,-1],"split_conditions":[1E0,4.763531E6,3.865572E6,1E0,1E0,1E0,1E0,-6.471698E-2,-2.5351563E-2,-1.7277312E-2,1.2965261E-2,-1.7672185E-2,1.2324545E-2,1.6719108E-2,3.303301E-2],"split_indices":[17,3,3,24,24,24,24,0,0,0,0,0,0,0,0],"split_type":[0,0,0,0,0,0,0,0,0,0,0,0,0,0,0],"sum_hessian":[3.1835764E3,1.5953433E3,1.588233E3,6.0940985E2,9.859334E2,4.9891672E2,1.0893163E3,2.5553587E2,3.5387396E2,4.399978E2,5.459356E2,2.1879256E2,2.8012418E2,5.029143E2,5.8640204E2],"tree_param":{"num_deleted":"0","num_feature":"25","num_nodes":"15","size_leaf_vector":"1"}},{"base_weights":[-3.2621203E-3,-3.2555556E-1,3.2903644E-1,-8.4445024E-1,1.2297225E-3,-1.4367843E-1,4.5080262E-1,-6.3234776E-2,-2.3694655E-2,-1.619969E-2,1.3416838E-2,-2.5270136E-2,7.3499875E-3,1.1706005E-2,2.955855E-2],"categories":[],"categories_nodes":[],"categories_segments":[],"categories_sizes":[],"default_left":[0,0,0,0,0,0,0,0,0,0,0,0,0,0,0],"id":9,"left_children":[1,3,5,7,9,11,13,-1,-1,-1,-1,-1,-1,-1,-1],"loss_changes":[3.3705566E2,2.716825E2,8.968712E1,9.867276E1,9.4347206E1,3.7414318E1,4.130223E1,0E0,0E0,0E0,0E0,0E0,0E0,0E0,0E0],"parents":[2147483647,0,0,1,1,2,2,3,3,4,4,5,5,6,6],"right_children":[2,4,6,8,10,12,14,-1,-1,-1,-1,-1,-1,-1,-1],"split_conditions":[1E0,9.452892E6,2.676372E6,1E0,1E0,8.16412E5,1E0,-6.3234776E-2,-2.3694655E-2,-1.619969E-2,1.3416838E-2,-2.5270136E-2,7.3499875E-3,1.1706005E-2,2.955855E-2],"split_indices":[17,4,3,24,24,1,24,0,0,0,0,0,0,0,0],"split_type":[0,0,0,0,0,0,0,0,0,0,0,0,0,0,0],"sum_hessian":[3.136736E3,1.5934636E3,1.5432726E3,6.1336646E2,9.800971E2,3.1473398E2,1.2285386E3,2.5081198E2,3.6255447E2,4.404283E2,5.396688E2,1.3634937E2,1.7838463E2,5.607054E2,6.678331E2],"tree_param":{"num_deleted":"0","num_feature":"25","num_nodes":"15","size_leaf_vector":"1"}},{"base_weights":[-1.0507969E-2,-3.2762432E-1,3.1776696E-1,-7.0572776E-1,-3.7456993E-2,9.636153E-2,4.9790064E-1,-4.9248204E-2,-1.184623E-2,6.7869215E-3,-2.4322428E-2,-1.2723312E-2,1.436273E-2,1.1266387E-3,2.705075E-2],"categories":[],"categories_nodes":[],"categories_segments":[],"categories_sizes":[],"default_left":[0,0,0,0,0,0,0,0,0,0,0,0,0,0,0],"id":10,"left_children":[1,3,5,7,9,11,13,-1,-1,-1,-1,-1,-1,-1,-1],"loss_changes":[3.2548962E2,1.7393073E2,6.056317E1,1.0058667E2,7.752646E1,5.21585E1,2.7006454E1,0E0,0E0,0E0,0E0,0E0,0E0,0E0,0E0],"parents":[2147483647,0,0,1,1,2,2,3,3,4,4,5,5,6,6],"right_children":[2,4,6,8,10,12,14,-1,-1,-1,-1,-1,-1,-1,-1],"split_conditions":[1E0,1E0,1E0,9.45024E5,1E0,4.2E1,2.84729E5,-4.9248204E-2,-1.184623E-2,6.7869215E-3,-2.4322428E-2,-1.2723312E-2,1.436273E-2,1.1266387E-3,2.705075E-2],"split_indices":[17,24,24,1,16,0,1,0,0,0,0,0,0,0,0],"split_type":[0,0,0,0,0,0,0,0,0,0,0,0,0,0,0],"sum_hessian":[3.1161274E3,1.5860925E3,1.5300349E3,6.84389E2,9.017036E2,6.9173376E2,8.3830115E2,3.9501843E2,2.893705E2,6.5472675E2,2.4697685E2,2.4750668E2,4.442271E2,1.08252495E2,7.300487E2],"tree_param":{"num_deleted":"0","num_feature":"25","num_nodes":"15","size_leaf_vector":"1"}},{"base_weights":[3.5647422E-3,-5.092811E-1,2.1810614E-1,-9.551044E-1,-7.829303E-2,3.3544227E-1,-4.5879233E-1,-6.642192E-2,-2.9908981E-2,-2.442817E-2,4.881578E-3,5.3576613E-3,2.4745764E-2,-3.156228E-2,1.2635303E-2],"categories":[],"categories_nodes":[],"categories_segments":[],"categories_sizes":[],"default_left":[0,0,0,0,0,0,0,0,0,0,0,0,0,0,0],"id":11,"left_children":[1,3,5,7,9,11,13,-1,-1,-1,-1,-1,-1,-1,-1],"loss_changes":[3.47018E2,1.7754942E2,1.7751065E2,5.9358368E1,3.8062206E1,7.685889E1,4.9519516E1,0E0,0E0,0E0,0E0,0E0,0E0,0E0,0E0],"parents":[2147483647,0,0,1,1,2,2,3,3,4,4,5,5,6,6],"right_children":[2,4,6,8,10,12,14,-1,-1,-1,-1,-1,-1,-1,-1],"split_conditions":[3.781575E6,1E0,1E0,1E0,5.80901E5,1E0,8.888068E6,-6.642192E-2,-2.9908981E-2,-2.442817E-2,4.881578E-3,5.3576613E-3,2.4745764E-2,-3.156228E-2,1.2635303E-2],"split_indices":[3,17,16,24,1,24,3,0,0,0,0,0,0,0,0],"split_type":[0,0,0,0,0,0,0,0,0,0,0,0,0,0,0],"sum_hessian":[3.1452815E3,9.24611E2,2.2206704E3,4.5055652E2,4.7405447E2,1.8957318E3,3.2493878E2,1.8541023E2,2.651463E2,1.3772784E2,3.3632663E2,8.592548E2,1.0364769E3,2.5503601E2,6.990276E1],"tree_param":{"num_deleted":"0","num_feature":"25","num_nodes":"15","size_leaf_vector":"1"}},{"base_weights":[5.716915E-3,-6.3610023E-1,1.4053576E-1,-1.0437047E0,-3.2867387E-1,2.5037527E-1,-5.198231E-1,-6.0759008E-2,-2.0889524E-2,-6.7712865E-3,-6.695402E-2,-5.652752E-3,1.6885059E-2,-4.626538E-2,-6.945965E-3],"categories":[],"categories_nodes":[],"categories_segments":[],"categories_sizes":[],"default_left":[0,0,0,0,0,0,0,0,0,0,0,0,0,0,0],"id":12,"left_children":[1,3,5,7,9,11,13,-1,-1,-1,-1,-1,-1,-1,-1],"loss_changes":[2.719799E2,6.559247E1,1.8919646E2,2.7965408E1,6.198633E1,8.55289E1,6.101011E1,0E0,0E0,0E0,0E0,0E0,0E0,0E0,0E0],"parents":[2147483647,0,0,1,1,2,2,3,3,4,4,5,5,6,6],"right_children":[2,4,6,8,10,12,14,-1,-1,-1,-1,-1,-1,-1,-1],"split_conditions":[2.308188E6,1E0,1E0,5.5E1,1E0,4.11007E5,1.1272208E7,-6.0759008E-2,-2.0889524E-2,-6.7712865E-3,-6.695402E-2,-5.652752E-3,1.6885059E-2,-4.626538E-2,-6.945965E-3],"split_indices":[3,24,16,0,16,1,4,0,0,0,0,0,0,0,0],"split_type":[0,0,0,0,0,0,0,0,0,0,0,0,0,0,0],"sum_hessian":[3.1365918E3,5.4021185E2,2.59638E3,2.2589493E2,3.143169E2,2.2298E3,3.6657977E2,1.5894562E2,6.694932E1,2.73332E2,4.098491E1,4.8628018E2,1.7435199E3,1.6198518E2,2.045946E2],"tree_param":{"num_deleted":"0","num_feature":"25","num_nodes":"15","size_leaf_vector":"1"}},{"base_weights":[-1.4998489E-2,-3.1719488E-1,2.9161677E-1,-8.047766E-1,-1.25861345E-2,-2.3004496E-1,3.9259675E-1,-6.1266612E-2,-2.2923762E-2,-1.4658608E-2,1.0830199E-2,-2.7134458E-2,1.463949E-2,9.840199E-3,2.602198E-2],"categories":[],"categories_nodes":[],"categories_segments":[],"categories_sizes":[],"default_left":[0,0,0,0,0,0,0,0,0,0,0,0,0,0,0],"id":13,"left_children":[1,3,5,7,9,11,13,-1,-1,-1,-1,-1,-1,-1,-1],"loss_changes":[2.8873795E2,2.3260124E2,8.200792E1,8.918271E1,6.9000305E1,4.700557E1,3.5791794E1,0E0,0E0,0E0,0E0,0E0,0E0,0E0,0E0],"parents":[2147483647,0,0,1,1,2,2,3,3,4,4,5,5,6,6],"right_children":[2,4,6,8,10,12,14,-1,-1,-1,-1,-1,-1,-1,-1],"split_conditions":[1E0,9.452892E6,6.9052495E6,1E0,1E0,8.16412E5,1E0,-6.1266612E-2,-2.2923762E-2,-1.4658608E-2,1.0830199E-2,-2.7134458E-2,1.463949E-2,9.840199E-3,2.602198E-2],"split_indices":[17,4,4,24,24,1,24,0,0,0,0,0,0,0,0],"split_type":[0,0,0,0,0,0,0,0,0,0,0,0,0,0,0],"sum_hessian":[3.1055164E3,1.5650878E3,1.5404286E3,5.976108E2,9.6747705E2,2.4761696E2,1.2928116E3,2.3442343E2,3.6318732E2,4.345379E2,5.3293915E2,1.5248747E2,9.5129486E1,5.891324E2,7.0367926E2],"tree_param":{"num_deleted":"0","num_feature":"25","num_nodes":"15","size_leaf_vector":"1"}},{"base_weights":[-1.43097015E-2,-4.6815005E-1,1.7609423E-1,-8.638825E-1,-9.310287E-2,-8.38862E-2,4.4448707E-1,-6.1443023E-2,-2.6337484E-2,3.7226856E-3,-2.8245443E-2,-1.9586954E-2,8.061121E-3,-5.720537E-3,2.3065237E-2],"categories":[],"categories_nodes":[],"categories_segments":[],"categories_sizes":[],"default_left":[0,0,0,0,0,0,0,0,0,0,0,0,0,0,0],"id":14,"left_children":[1,3,5,7,9,11,13,-1,-1,-1,-1,-1,-1,-1,-1],"loss_changes":[2.6898132E2,1.3549846E2,1.5328098E2,5.3948456E1,4.1477543E1,9.25625E1,2.410492E1,0E0,0E0,0E0,0E0,0E0,0E0,0E0,0E0],"parents":[2147483647,0,0,1,1,2,2,3,3,4,4,5,5,6,6],"right_children":[2,4,6,8,10,12,14,-1,-1,-1,-1,-1,-1,-1,-1],"split_conditions":[3.781575E6,1E0,1E0,1E0,1E0,1E0,1.73319E5,-6.1443023E-2,-2.6337484E-2,3.7226856E-3,-2.8245443E-2,-1.9586954E-2,8.061121E-3,-5.720537E-3,2.3065237E-2],"split_indices":[3,17,17,24,23,24,1,0,0,0,0,0,0,0,0],"split_type":[0,0,0,0,0,0,0,0,0,0,0,0,0,0,0],"sum_hessian":[3.1001492E3,9.150682E2,2.185081E3,4.4102768E2,4.740405E2,1.1104371E3,1.0746438E3,1.793664E2,2.616613E2,3.551686E2,1.18871864E2,4.8439444E2,6.2604266E2,6.7004524E1,1.00763934E3],"tree_param":{"num_deleted":"0","num_feature":"25","num_nodes":"15","size_leaf_vector":"1"}},{"base_weights":[1.1559747E-2,-3.2264546E-1,2.2707662E-1,-1.8734922E-1,-1.2571982E0,3.145143E-1,-2.5551587E-1,-3.293591E-2,-1.2364639E-3,9.5705065E-4,-6.153253E-2,5.380796E-3,2.2747273E-2,-2.211609E-2,1.6462427E-2],"categories":[],"categories_nodes":[],"categories_segments":[],"categories_sizes":[],"default_left":[0,0,0,0,0,0,0,0,0,0,0,0,0,0,0],"id":15,"left_children":[1,3,5,7,9,11,13,-1,-1,-1,-1,-1,-1,-1,-1],"loss_changes":[2.2447296E2,1.52139E2,8.0482605E1,8.649268E1,7.2067413E0,5.189592E1,3.7402176E1,0E0,0E0,0E0,0E0,0E0,0E0,0E0,0E0],"parents":[2147483647,0,0,1,1,2,2,3,3,4,4,5,5,6,6],"right_children":[2,4,6,8,10,12,14,-1,-1,-1,-1,-1,-1,-1,-1],"split_conditions":[4.763531E6,1E0,1E0,4.8835E5,1.1071211E-1,4.5E1,8.888068E6,-3.293591E-2,-1.2364639E-3,9.5705065E-4,-6.153253E-2,5.380796E-3,2.2747273E-2,-2.211609E-2,1.6462427E-2],"split_indices":[3,16,16,1,10,0,3,0,0,0,0,0,0,0,0],"split_type":[0,0,0,0,0,0,0,0,0,0,0,0,0,0,0],"sum_hessian":[3.1068896E3,1.2157528E3,1.891137E3,1.0681477E3,1.476051E2,1.6038246E3,2.8731232E2,2.5450491E2,8.136428E2,3.083111E0,1.4452199E2,7.199324E2,8.838922E2,2.1520737E2,7.2104965E1],"tree_param":{"num_deleted":"0","num_feature":"25","num_nodes":"15","size_leaf_vector":"1"}},{"base_weights":[3.7799908E-3,-2.711717E-1,2.7861613E-1,-1.0534694E0,-1.2800881E-1,-1.1010119E-1,3.793619E-1,-6.011274E-2,-1.8101413E-2,-2.3474349E-2,6.6207866E-3,-2.282704E-2,1.0268171E-2,-1.6071733E-2,1.9451518E-2],"categories":[],"categories_nodes":[],"categories_segments":[],"categories_sizes":[],"default_left":[0,0,0,0,0,0,0,0,0,0,0,0,0,0,0],"id":16,"left_children":[1,3,5,7,9,11,13,-1,-1,-1,-1,-1,-1,-1,-1],"loss_changes":[2.343941E2,1.719835E2,6.120324E1,2.9386383E1,1.2827994E2,3.9278374E1,2.5601501E1,0E0,0E0,0E0,0E0,0E0,0E0,0E0,0E0],"parents":[2147483647,0,0,1,1,2,2,3,3,4,4,5,5,6,6],"right_children":[2,4,6,8,10,12,14,-1,-1,-1,-1,-1,-1,-1,-1],"split_conditions":[1E0,3.1187207E-1,2.676372E6,1.266733E6,1E0,8.87876E5,1.18607E5,-6.011274E-2,-1.8101413E-2,-2.3474349E-2,6.6207866E-3,-2.282704E-2,1.0268171E-2,-1.6071733E-2,1.9451518E-2],"split_indices":[17,11,3,1,24,1,1,0,0,0,0,0,0,0,0],"split_type":[0,0,0,0,0,0,0,0,0,0,0,0,0,0,0],"sum_hessian":[3.0912847E3,1.5440785E3,1.5472062E3,2.3295477E2,1.3111238E3,3.1692926E2,1.230277E3,1.7423625E2,5.8718525E1,5.5392975E2,7.5719403E2,1.4852321E2,1.6840605E2,4.3305088E1,1.1869719E3],"tree_param":{"num_deleted":"0","num_feature":"25","num_nodes":"15","size_leaf_vector":"1"}},{"base_weights":[5.911602E-3,-5.5829585E-1,1.2685305E-1,-1.0541573E0,-1.0755706E-1,2.2047673E-1,-4.3225256E-1,-5.7031535E-2,-2.5778197E-2,-2.5568768E-2,1.0930731E-2,-5.3261778E-5,1.887411E-2,-4.552238E-2,-7.0416103E-3],"categories":[],"categories_nodes":[],"categories_segments":[],"categories_sizes":[],"default_left":[0,0,0,0,0,0,0,0,0,0,0,0,0,0,0],"id":17,"left_children":[1,3,5,7,9,11,13,-1,-1,-1,-1,-1,-1,-1,-1],"loss_changes":[2.1110245E2,1.2059628E2,1.3393996E2,1.4082794E1,4.2987305E1,8.515906E1,5.293123E1,0E0,0E0,0E0,0E0,0E0,0E0,0E0,0E0],"parents":[2147483647,0,0,1,1,2,2,3,3,4,4,5,5,6,6],"right_children":[2,4,6,8,10,12,14,-1,-1,-1,-1,-1,-1,-1,-1],"split_conditions":[2.440859E6,1E0,1E0,3.142627E-1,4.5E1,1E0,5.886592E6,-5.7031535E-2,-2.5778197E-2,-2.5568768E-2,1.0930731E-2,-5.3261778E-5,1.887411E-2,-4.552238E-2,-7.0416103E-3],"split_indices":[3,17,16,11,0,24,3,0,0,0,0,0,0,0,0],"split_type":[0,0,0,0,0,0,0,0,0,0,0,0,0,0,0],"sum_hessian":[3.0874712E3,5.4063293E2,2.5468384E3,2.533551E2,2.872778E2,2.1853225E3,3.6151572E2,1.9249553E2,6.0859577E1,1.2600201E2,1.612758E2,9.644006E2,1.220922E3,1.2250765E2,2.3900806E2],"tree_param":{"num_deleted":"0","num_feature":"25","num_nodes":"15","size_leaf_vector":"1"}},{"base_weights":[-3.433E-3,-2.5105336E-1,2.4557634E-1,-1.0213253E0,-1.1306272E-1,-5.6277955E-1,2.913442E-1,-5.7373196E-2,-2.0173002E-2,-2.7946506E-2,3.5663857E-3,-4.2381383E-2,6.1121313E-3,6.8957456E-3,2.2096386E-2],"categories":[],"categories_nodes":[],"categories_segments":[],"categories_sizes":[],"default_left":[0,0,0,0,0,0,0,0,0,0,0,0,0,0,0],"id":18,"left_children":[1,3,5,7,9,11,13,-1,-1,-1,-1,-1,-1,-1,-1],"loss_changes":[1.9068988E2,1.6356116E2,5.766426E1,2.1524384E1,1.1790028E2,1.9874237E1,3.606407E1,0E0,0E0,0E0,0E0,0E0,0E0,0E0,0E0],"parents":[2147483647,0,0,1,1,2,2,3,3,4,4,5,5,6,6],"right_children":[2,4,6,8,10,12,14,-1,-1,-1,-1,-1,-1,-1,-1],"split_conditions":[1E0,3.1187207E-1,7.68964E5,1.266733E6,5.0612E5,1.207943E6,6.16522E6,-5.7373196E-2,-2.0173002E-2,-2.7946506E-2,3.5663857E-3,-4.2381383E-2,6.1121313E-3,6.8957456E-3,2.2096386E-2],"split_indices":[17,11,3,1,1,1,3,0,0,0,0,0,0,0,0],"split_type":[0,0,0,0,0,0,0,0,0,0,0,0,0,0,0],"sum_hessian":[3.0820857E3,1.5467415E3,1.5353441E3,2.2913277E2,1.3176088E3,7.828298E1,1.4570612E3,1.7112877E2,5.8004E1,3.7271576E2,9.4489294E2,5.2914513E1,2.5368467E1,7.921787E2,6.648825E2],"tree_param":{"num_deleted":"0","num_feature":"25","num_nodes":"15","size_leaf_vector":"1"}},{"base_weights":[-1.8042741E-2,-3.8059866E-1,1.3824354E-1,-2.58491E-1,-1.2305275E0,2.2697471E-1,-3.6218613E-1,-2.9223647E-2,-2.226632E-4,-6.0808934E-2,-4.0678205E-3,7.6676963E-4,1.8963682E-2,-2.5658026E-2,1.248004E-2],"categories":[],"categories_nodes":[],"categories_segments":[],"categories_sizes":[],"default_left":[0,0,0,0,0,0,0,0,0,0,0,0,0,0,0],"id":19,"left_children":[1,3,5,7,9,11,13,-1,-1,-1,-1,-1,-1,-1,-1],"loss_changes":[1.7244963E2,9.2474915E1,9.463565E1,7.2193985E1,4.074478E0,6.4605316E1,3.5973167E1,0E0,0E0,0E0,0E0,0E0,0E0,0E0,0E0],"parents":[2147483647,0,0,1,1,2,2,3,3,4,4,5,5,6,6],"right_children":[2,4,6,8,10,12,14,-1,-1,-1,-1,-1,-1,-1,-1],"split_conditions":[3.865572E6,1E0,1E0,1E0,5.8741134E-1,1E0,8.888068E6,-2.9223647E-2,-2.226632E-4,-6.0808934E-2,-4.0678205E-3,7.6676963E-4,1.8963682E-2,-2.5658026E-2,1.248004E-2],"split_indices":[3,16,16,24,11,24,3,0,0,0,0,0,0,0,0],"split_type":[0,0,0,0,0,0,0,0,0,0,0,0,0,0,0],"sum_hessian":[3.030363E3,9.118969E2,2.118466E3,8.040321E2,1.0786482E2,1.80303E3,3.1543597E2,3.3172525E2,4.723069E2,1.0279071E2,5.074106E0,8.097124E2,9.933176E2,2.4767664E2,6.775934E1],"tree_param":{"num_deleted":"0","num_feature":"25","num_nodes":"15","size_leaf_vector":"1"}},{"base_weights":[8.795999E-3,-3.488436E-1,1.6151312E-1,-7.0911264E-1,-2.3742279E-2,-2.1363748E-2,3.5398844E-1,-5.5398423E-2,-1.9257339E-2,-1.5954748E-2,1.0156804E-2,-1.459134E-2,1.1373851E-2,9.238253E-3,2.2938782E-2],"categories":[],"categories_nodes":[],"categories_segments":[],"categories_sizes":[],"default_left":[0,0,0,0,0,0,0,0,0,0,0,0,0,0,0],"id":20,"left_children":[1,3,5,7,9,11,13,-1,-1,-1,-1,-1,-1,-1,-1],"loss_changes":[1.6777179E2,1.0698457E2,7.614177E1,5.6406876E1,3.637927E1,8.22202E1,2.0402985E1,0E0,0E0,0E0,0E0,0E0,0E0,0E0,0E0],"parents":[2147483647,0,0,1,1,2,2,3,3,4,4,5,5,6,6],"right_children":[2,4,6,8,10,12,14,-1,-1,-1,-1,-1,-1,-1,-1],"split_conditions":[3.865572E6,1E0,1E0,1E0,1E0,8.09774E5,4.5E1,-5.5398423E-2,-1.9257339E-2,-1.5954748E-2,1.0156804E-2,-1.459134E-2,1.1373851E-2,9.238253E-3,2.2938782E-2],"split_indices":[3,17,17,24,24,1,0,0,0,0,0,0,0,0,0],"split_type":[0,0,0,0,0,0,0,0,0,0,0,0,0,0,0],"sum_hessian":[3.0635183E3,9.1333167E2,2.1501865E3,4.2927933E2,4.8405234E2,1.1031052E3,1.0470814E3,1.6654454E2,2.627348E2,2.0964357E2,2.7440878E2,5.2738245E2,5.757227E2,4.6980493E2,5.772764E2],"tree_param":{"num_deleted":"0","num_feature":"25","num_nodes":"15","size_leaf_vector":"1"}},{"base_weights":[-2.5444913E-3,-2.2914171E-1,2.2514442E-1,-6.3566476E-1,9.951976E-3,-4.1649726E-1,2.7368698E-1,-5.741357E-2,-2.3067795E-2,-5.6679635E-3,1.6306061E-2,-1.175578E-2,-4.535939E-2,5.4762084E-3,1.9197943E-2],"categories":[],"categories_nodes":[],"categories_segments":[],"categories_sizes":[],"default_left":[0,0,0,0,0,0,0,0,0,0,0,0,0,0,0],"id":21,"left_children":[1,3,5,7,9,11,13,-1,-1,-1,-1,-1,-1,-1,-1],"loss_changes":[1.5723181E2,1.4907576E2,4.7794685E1,4.48257E1,4.161815E1,7.7374077E0,2.8308296E1,0E0,0E0,0E0,0E0,0E0,0E0,0E0,0E0],"parents":[2147483647,0,0,1,1,2,2,3,3,4,4,5,5,6,6],"right_children":[2,4,6,8,10,12,14,-1,-1,-1,-1,-1,-1,-1,-1],"split_conditions":[1E0,9.452892E6,1.6855349E-1,1.217641E6,8.691263E6,3.572105E-2,4.5E1,-5.741357E-2,-2.3067795E-2,-5.6679635E-3,1.6306061E-2,-1.175578E-2,-4.535939E-2,5.4762084E-3,1.9197943E-2],"split_indices":[17,4,11,3,3,7,0,0,0,0,0,0,0,0,0],"split_type":[0,0,0,0,0,0,0,0,0,0,0,0,0,0,0],"sum_hessian":[3.0369812E3,1.5236647E3,1.5133167E3,5.621347E2,9.6152997E2,1.0263096E2,1.4106857E3,1.1053454E2,4.516002E2,6.9362225E2,2.6790768E2,8.4598755E1,1.8032207E1,6.372474E2,7.7343835E2],"tree_param":{"num_deleted":"0","num_feature":"25","num_nodes":"15","size_leaf_vector":"1"}},{"base_weights":[-3.472077E-3,-2.0715936E-1,2.3599777E-1,-5.4053E-1,3.6243044E-2,3.0667913E-1,-1.3865751E-1,-4.480684E-2,-9.763601E-3,6.920021E-3,-3.6000606E-2,-1.3687686E-3,1.7973524E-2,-2.2681544E-2,9.786711E-3],"categories":[],"categories_nodes":[],"categories_segments":[],"categories_sizes":[],"default_left":[0,0,0,0,0,0,0,0,0,0,0,0,0,0,0],"id":22,"left_children":[1,3,5,7,9,11,13,-1,-1,-1,-1,-1,-1,-1,-1],"loss_changes":[1.4917265E2,1.3469547E2,3.752787E1,9.176955E1,8.2611435E1,2.8028008E1,2.6702633E1,0E0,0E0,0E0,0E0,0E0,0E0,0E0,0E0],"parents":[2147483647,0,0,1,1,2,2,3,3,4,4,5,5,6,6],"right_children":[2,4,6,8,10,12,14,-1,-1,-1,-1,-1,-1,-1,-1],"split_conditions":[6.120359E6,1E0,1E0,1E0,1E0,3.4016E5,8.59223E5,-4.480684E-2,-9.763601E-3,6.920021E-3,-3.6000606E-2,-1.3687686E-3,1.7973524E-2,-2.2681544E-2,9.786711E-3],"split_indices":[3,24,16,17,16,1,1,0,0,0,0,0,0,0,0],"split_type":[0,0,0,0,0,0,0,0,0,0,0,0,0,0,0],"sum_hessian":[3.0481958E3,1.6491226E3,1.3990732E3,6.9445996E2,9.546626E2,1.1793915E3,2.1968169E2,3.1265955E2,3.818004E2,8.437658E2,1.1089677E2,2.0198422E2,9.774073E2,1.1102494E2,1.0865675E2],"tree_param":{"num_deleted":"0","num_feature":"25","num_nodes":"15","size_leaf_vector":"1"}},{"base_weights":[1.0025189E-3,-2.094036E-1,2.1146171E-1,-5.998435E-1,1.5068151E-2,-1.4441544E-1,2.9486942E-1,-5.0809044E-2,-1.4816535E-2,-1.0937231E-2,1.0167823E-2,-1.9461712E-2,1.3196191E-2,1.9220026E-2,7.2838627E-3],"categories":[],"categories_nodes":[],"categories_segments":[],"categories_sizes":[],"default_left":[0,0,0,0,0,0,0,0,0,0,0,0,0,0,0],"id":23,"left_children":[1,3,5,7,9,11,13,-1,-1,-1,-1,-1,-1,-1,-1],"loss_changes":[1.349007E2,1.338252E2,4.558416E1,7.216325E1,4.7125317E1,3.2962063E1,1.8273224E1,0E0,0E0,0E0,0E0,0E0,0E0,0E0,0E0],"parents":[2147483647,0,0,1,1,2,2,3,3,4,4,5,5,6,6],"right_children":[2,4,6,8,10,12,14,-1,-1,-1,-1,-1,-1,-1,-1],"split_conditions":[1E0,9.452892E6,7.2241795E6,1E0,1E0,8.16412E5,4.62592E-1,-5.0809044E-2,-1.4816535E-2,-1.0937231E-2,1.0167823E-2,-1.9461712E-2,1.3196191E-2,1.9220026E-2,7.2838627E-3],"split_indices":[17,4,4,24,24,1,10,0,0,0,0,0,0,0,0],"split_type":[0,0,0,0,0,0,0,0,0,0,0,0,0,0,0],"sum_hessian":[3.0359075E3,1.5164941E3,1.5194135E3,5.5153625E2,9.6495795E2,2.8617236E2,1.2332411E3,2.0547859E2,3.4605762E2,4.3004523E2,5.349127E2,1.7717479E2,1.0899758E2,6.936657E2,5.395753E2],"tree_param":{"num_deleted":"0","num_feature":"25","num_nodes":"15","size_leaf_vector":"1"}},{"base_weights":[5.7206783E-3,9.0793625E-2,-5.331219E-1,-7.188885E-1,1.4581712E-1,-9.5368594E-1,-1.5554468E-1,-4.734969E-2,-1.9298444E-2,-2.2810856E-3,1.2685498E-2,-5.283717E-2,-1.43512525E-2,-3.585521E-2,8.5451617E-4],"categories":[],"categories_nodes":[],"categories_segments":[],"categories_sizes":[],"default_left":[0,0,0,0,0,0,0,0,0,0,0,0,0,0,0],"id":24,"left_children":[1,3,5,7,9,11,13,-1,-1,-1,-1,-1,-1,-1,-1],"loss_changes":[1.3894847E2,1.17070915E2,6.404643E1,1.12712555E1,5.737996E1,1.661766E1,2.3802773E1,0E0,0E0,0E0,0E0,0E0,0E0,0E0,0E0],"parents":[2147483647,0,0,1,1,2,2,3,3,4,4,5,5,6,6],"right_children":[2,4,6,8,10,12,14,-1,-1,-1,-1,-1,-1,-1,-1],"split_conditions":[1E0,1.6855349E-1,1.0848547E7,4.5E1,4.2E1,6.04E2,4.9325824E-1,-4.734969E-2,-1.9298444E-2,-2.2810856E-3,1.2685498E-2,-5.283717E-2,-1.43512525E-2,-3.585521E-2,8.5451617E-4],"split_indices":[16,11,4,0,0,6,11,0,0,0,0,0,0,0,0],"split_type":[0,0,0,0,0,0,0,0,0,0,0,0,0,0,0],"sum_hessian":[3.0271E3,2.6192256E3,4.0787442E2,1.6184048E2,2.457385E3,1.8829846E2,2.1957597E2,7.9447586E1,8.23929E1,9.3879865E2,1.5185864E3,1.4873471E2,3.956375E1,4.6508503E1,1.7306746E2],"tree_param":{"num_deleted":"0","num_feature":"25","num_nodes":"15","size_leaf_vector":"1"}},{"base_weights":[6.6638534E-4,-1.5951793E-1,2.565682E-1,-6.29778E-2,-8.458242E-1,6.180384E-2,3.9017874E-1,-1.7675716E-2,7.6782727E-3,-4.7222868E-2,-9.510275E-3,-1.1462099E-2,1.432729E-2,2.022772E-2,-1.8801205E-2],"categories":[],"categories_nodes":[],"categories_segments":[],"categories_sizes":[],"default_left":[0,0,0,0,0,0,0,0,0,0,0,0,0,0,0],"id":25,"left_children":[1,3,5,7,9,11,13,-1,-1,-1,-1,-1,-1,-1,-1],"loss_changes":[1.241317E2,1.2230376E2,2.9921562E1,1.1302691E2,1.926767E1,3.5174892E1,1.8996544E1,0E0,0E0,0E0,0E0,0E0,0E0,0E0,0E0],"parents":[2147483647,0,0,1,1,2,2,3,3,4,4,5,5,6,6],"right_children":[2,4,6,8,10,12,14,-1,-1,-1,-1,-1,-1,-1,-1],"split_conditions":[6.832496E6,1E0,4.3E1,1E0,6.04E2,1E0,6.89E2,-1.7675716E-2,7.6782727E-3,-4.7222868E-2,-9.510275E-3,-1.1462099E-2,1.432729E-2,2.022772E-2,-1.8801205E-2],"split_indices":[3,16,0,24,6,24,6,0,0,0,0,0,0,0,0],"split_type":[0,0,0,0,0,0,0,0,0,0,0,0,0,0,0],"sum_hessian":[3.016117E3,1.8545051E3,1.1616118E3,1.6317123E3,2.2279282E2,4.7788858E2,6.8372327E2,6.875277E2,9.441846E2,1.7921678E2,4.357604E1,2.095011E2,2.6838745E2,6.588565E2,2.486676E1],"tree_param":{"num_deleted":"0","num_feature":"25","num_nodes":"15","size_leaf_vector":"1"}},{"base_weights":[6.6401768E-3,8.394595E-2,-4.8431715E-1,-1.4011301E-1,2.2941756E-1,-1.0191474E0,-1.9689782E-1,-2.4351E-2,4.7344677E-3,5.672853E-3,1.8608449E-2,-5.6745347E-2,-1.44701535E-2,-2.6165666E-2,1.4464796E-2],"categories":[],"categories_nodes":[],"categories_segments":[],"categories_sizes":[],"default_left":[0,0,0,0,0,0,0,0,0,0,0,0,0,0,0],"id":26,"left_children":[1,3,5,7,9,11,13,-1,-1,-1,-1,-1,-1,-1,-1],"loss_changes":[1.141391E2,8.5152885E1,6.0953606E1,9.146648E1,2.7486542E1,1.4157028E1,4.9017323E1,0E0,0E0,0E0,0E0,0E0,0E0,0E0,0E0],"parents":[2147483647,0,0,1,1,2,2,3,3,4,4,5,5,6,6],"right_children":[2,4,6,8,10,12,14,-1,-1,-1,-1,-1,-1,-1,-1],"split_conditions":[1E0,9.452892E6,4.9325824E-1,1E0,5E1,1.2744859E7,8.59223E5,-2.4351E-2,4.7344677E-3,5.672853E-3,1.8608449E-2,-5.6745347E-2,-1.44701535E-2,-2.6165666E-2,1.4464796E-2],"split_indices":[16,4,11,24,0,4,1,0,0,0,0,0,0,0,0],"split_type":[0,0,0,0,0,0,0,0,0,0,0,0,0,0,0],"sum_hessian":[3.0038625E3,2.6002017E3,4.0366083E2,1.0217915E3,1.5784103E3,1.355917E2,2.6806912E2,4.001443E2,6.216472E2,9.4213434E2,6.362759E2,1.0606116E2,2.9530546E1,1.5798146E2,1.1008767E2],"tree_param":{"num_deleted":"0","num_feature":"25","num_nodes":"15","size_leaf_vector":"1"}},{"base_weights":[-4.3715346E-3,-6.897511E-1,5.4475196E-2,-1.1500968E0,-2.7345082E-1,-1.439863E-1,2.1338461E-1,-5.6616765E-2,-4.3030092E-3,-3.6718454E-3,-4.1240647E-2,-2.078967E-2,5.4914835E-3,4.0283143E-3,1.6891748E-2],"categories":[],"categories_nodes":[],"categories_segments":[],"categories_sizes":[],"default_left":[0,0,0,0,0,0,0,0,0,0,0,0,0,0,0],"id":27,"left_children":[1,3,5,7,9,11,13,-1,-1,-1,-1,-1,-1,-1,-1],"loss_changes":[1.2216425E2,4.3268394E1,8.784233E1,2.772644E0,1.4480094E1,9.385631E1,2.7566895E1,0E0,0E0,0E0,0E0,0E0,0E0,0E0,0E0],"parents":[2147483647,0,0,1,1,2,2,3,3,4,4,5,5,6,6],"right_children":[2,4,6,8,10,12,14,-1,-1,-1,-1,-1,-1,-1,-1],"split_conditions":[1.217641E6,1E0,1E0,9.715437E6,1E0,1E0,8.53765E5,-5.6616765E-2,-4.3030092E-3,-3.6718454E-3,-4.1240647E-2,-2.078967E-2,5.4914835E-3,4.0283143E-3,1.6891748E-2],"split_indices":[3,17,24,4,23,17,1,0,0,0,0,0,0,0,0],"split_type":[0,0,0,0,0,0,0,0,0,0,0,0,0,0,0],"sum_hessian":[3.0077998E3,2.3433441E2,2.7734656E3,1.06100914E2,1.2823349E2,1.2315146E3,1.5419508E3,1.0139313E2,4.707787E0,1.0153396E2,2.6699532E1,5.7903705E2,6.5247766E2,8.1063556E2,7.3131525E2],"tree_param":{"num_deleted":"0","num_feature":"25","num_nodes":"15","size_leaf_vector":"1"}},{"base_weights":[1.9025763E-3,-1.9451939E-1,1.9529137E-1,-8.236049E-1,-7.843276E-2,-4.6255136E-1,2.3831975E-1,-5.389156E-2,-2.474476E-2,-1.4231939E-2,6.7693195E-3,3.2270137E-2,-2.7260376E-2,4.5334036E-3,1.7101524E-2],"categories":[],"categories_nodes":[],"categories_segments":[],"categories_sizes":[],"default_left":[0,0,0,0,0,0,0,0,0,0,0,0,0,0,0],"id":28,"left_children":[1,3,5,7,9,11,13,-1,-1,-1,-1,-1,-1,-1,-1],"loss_changes":[1.1353669E2,1.071893E2,4.3101044E1,1.7145096E1,6.114319E1,1.3472275E1,2.3906967E1,0E0,0E0,0E0,0E0,0E0,0E0,0E0,0E0],"parents":[2147483647,0,0,1,1,2,2,3,3,4,4,5,5,6,6],"right_children":[2,4,6,8,10,12,14,-1,-1,-1,-1,-1,-1,-1,-1],"split_conditions":[1E0,2.440859E6,9.07865E5,1.217641E6,8.39908E5,1.12757295E-1,1E0,-5.389156E-2,-2.474476E-2,-1.4231939E-2,6.7693195E-3,3.2270137E-2,-2.7260376E-2,4.5334036E-3,1.7101524E-2],"split_indices":[17,3,3,3,1,10,24,0,0,0,0,0,0,0,0],"split_type":[0,0,0,0,0,0,0,0,0,0,0,0,0,0,0],"sum_hessian":[2.9784429E3,1.4758218E3,1.5026211E3,2.2400212E2,1.2518196E3,8.811821E1,1.4145029E3,1.0380935E2,1.2019277E2,6.2736115E2,6.244585E2,4.7204943E0,8.339772E1,6.5112744E2,7.633755E2],"tree_param":{"num_deleted":"0","num_feature":"25","num_nodes":"15","size_leaf_vector":"1"}},{"base_weights":[5.283287E-3,-1.8750408E-1,1.9387968E-1,-5.522051E-1,1.4412511E-2,5.8848016E-2,3.6716387E-1,-4.9120974E-2,-1.29891E-2,1.6756264E-2,-5.7689794E-3,-1.3684127E-2,1.0292141E-2,-3.684519E-2,1.8525003E-2],"categories":[],"categories_nodes":[],"categories_segments":[],"categories_sizes":[],"default_left":[0,0,0,0,0,0,0,0,0,0,0,0,0,0,0],"id":29,"left_children":[1,3,5,7,9,11,13,-1,-1,-1,-1,-1,-1,-1,-1],"loss_changes":[1.09329636E2,1.0978192E2,3.519454E1,6.8478775E1,4.407229E1,4.7043804E1,1.705738E1,0E0,0E0,0E0,0E0,0E0,0E0,0E0,0E0],"parents":[2147483647,0,0,1,1,2,2,3,3,4,4,5,5,6,6],"right_children":[2,4,6,8,10,12,14,-1,-1,-1,-1,-1,-1,-1,-1],"split_conditions":[1E0,4.841803E6,6.120359E6,1E0,2.8134856E-1,5.80901E5,4.39894E-1,-4.9120974E-2,-1.29891E-2,1.6756264E-2,-5.7689794E-3,-1.3684127E-2,1.0292141E-2,-3.684519E-2,1.8525003E-2],"split_indices":[17,3,3,24,10,1,11,0,0,0,0,0,0,0,0],"split_type":[0,0,0,0,0,0,0,0,0,0,0,0,0,0,0],"sum_hessian":[2.9963596E3,1.4798951E3,1.5164645E3,5.253677E2,9.545274E2,8.585173E2,6.579472E2,1.8835815E2,3.3700955E2,2.72715E2,6.8181244E2,2.6518292E2,5.9333435E2,7.8439603E0,6.501033E2],"tree_param":{"num_deleted":"0","num_feature":"25","num_nodes":"15","size_leaf_vector":"1"}},{"base_weights":[6.2340754E-3,-3.990807E-1,8.905785E-2,-7.760279E-1,-7.238131E-2,1.5542734E-1,-3.2823345E-1,-4.759037E-2,-2.6153132E-2,-2.537834E-2,1.1295175E-2,-1.5958855E-3,1.3051832E-2,-2.3763685E-2,1.5685814E-2],"categories":[],"categories_nodes":[],"categories_segments":[],"categories_sizes":[],"default_left":[0,0,0,0,0,0,0,0,0,0,0,0,0,0,0],"id":30,"left_children":[1,3,5,7,9,11,13,-1,-1,-1,-1,-1,-1,-1,-1],"loss_changes":[1.0066585E2,6.1729973E1,6.928465E1,7.8800354E0,4.047188E1,4.8308323E1,3.9142216E1,0E0,0E0,0E0,0E0,0E0,0E0,0E0,0E0],"parents":[2147483647,0,0,1,1,2,2,3,3,4,4,5,5,6,6],"right_children":[2,4,6,8,10,12,14,-1,-1,-1,-1,-1,-1,-1,-1],"split_conditions":[2.440859E6,4.5E1,1E0,1E0,1E0,4.2E1,6.12E2,-4.759037E-2,-2.6153132E-2,-2.537834E-2,1.1295175E-2,-1.5958855E-3,1.3051832E-2,-2.3763685E-2,1.5685814E-2],"split_indices":[3,0,16,17,17,0,6,0,0,0,0,0,0,0,0],"split_type":[0,0,0,0,0,0,0,0,0,0,0,0,0,0,0],"sum_hessian":[2.9944058E3,5.0324356E2,2.4911624E3,2.2931615E2,2.739274E2,2.1535984E3,3.3756384E2,1.0603289E2,1.2328326E2,1.0957381E2,1.643536E2,8.2713873E2,1.3264597E3,2.7016492E2,6.739893E1],"tree_param":{"num_deleted":"0","num_feature":"25","num_nodes":"15","size_leaf_vector":"1"}},{"base_weights":[-6.8169213E-3,-1.7816189E-1,1.8845178E-1,-4.6981755E-1,2.8422749E-2,4.3750837E-1,9.073924E-2,-4.7532525E-2,-1.4457363E-2,5.741274E-3,-3.2963242E-2,-7.627173E-3,2.4684876E-2,-4.3789716E-3,1.1327932E-2],"categories":[],"categories_nodes":[],"categories_segments":[],"categories_sizes":[],"default_left":[0,0,0,0,0,0,0,0,0,0,0,0,0,0,0],"id":31,"left_children":[1,3,5,7,9,11,13,-1,-1,-1,-1,-1,-1,-1,-1],"loss_changes":[1.0007615E2,9.648303E1,3.3400665E1,5.5732437E1,6.19088E1,1.9213188E1,2.7258623E1,0E0,0E0,0E0,0E0,0E0,0E0,0E0,0E0],"parents":[2147483647,0,0,1,1,2,2,3,3,4,4,5,5,6,6],"right_children":[2,4,6,8,10,12,14,-1,-1,-1,-1,-1,-1,-1,-1],"split_conditions":[6.120359E6,1E0,2.7691528E-1,4.75426E5,1E0,2.70826E5,1E0,-4.7532525E-2,-1.4457363E-2,5.741274E-3,-3.2963242E-2,-7.627173E-3,2.4684876E-2,-4.3789716E-3,1.1327932E-2],"split_indices":[3,24,10,1,16,1,24,0,0,0,0,0,0,0,0],"split_type":[0,0,0,0,0,0,0,0,0,0,0,0,0,0,0],"sum_hessian":[2.9808005E3,1.5898124E3,1.3909883E3,6.578223E2,9.3199005E2,3.848047E2,1.00618353E3,1.5129033E2,5.06532E2,8.311451E2,1.0084496E2,4.3570724E1,3.4123398E2,4.4690097E2,5.5928253E2],"tree_param":{"num_deleted":"0","num_feature":"25","num_nodes":"15","size_leaf_vector":"1"}},{"base_weights":[-1.3018749E-2,-2.9788718E-1,8.714298E-2,-4.8874804E-1,1.1800112E-1,-1.2543917E-1,2.686309E-1,7.1806443E-4,-3.2040015E-2,-5.7492335E-3,1.6225249E-2,-1.7227E-3,-4.0169757E-2,7.374646E-3,2.5297862E-2],"categories":[],"categories_nodes":[],"categories_segments":[],"categories_sizes":[],"default_left":[0,0,0,0,0,0,0,0,0,0,0,0,0,0,0],"id":32,"left_children":[1,3,5,7,9,11,13,-1,-1,-1,-1,-1,-1,-1,-1],"loss_changes":[8.430009E1,6.1602135E1,8.441374E1,4.913909E1,1.3325285E1,6.3594776E1,3.428302E1,0E0,0E0,0E0,0E0,0E0,0E0,0E0,0E0],"parents":[2147483647,0,0,1,1,2,2,3,3,4,4,5,5,6,6],"right_children":[2,4,6,8,10,12,14,-1,-1,-1,-1,-1,-1,-1,-1],"split_conditions":[4.8835E5,1.0932294E7,4.9325824E-1,2.5971177E-1,1E0,1E0,1.158495E6,7.1806443E-4,-3.2040015E-2,-5.7492335E-3,1.6225249E-2,-1.7227E-3,-4.0169757E-2,7.374646E-3,2.5297862E-2],"split_indices":[1,4,11,10,17,16,1,0,0,0,0,0,0,0,0],"split_type":[0,0,0,0,0,0,0,0,0,0,0,0,0,0,0],"sum_hessian":[2.9393186E3,7.637657E2,2.1755527E3,5.2403906E2,2.3972661E2,1.0009122E3,1.1746406E3,1.3953535E2,3.8450372E2,1.1517998E2,1.2454663E2,8.9561145E2,1.05300735E2,8.251112E2,3.4952945E2],"tree_param":{"num_deleted":"0","num_feature":"25","num_nodes":"15","size_leaf_vector":"1"}},{"base_weights":[-5.991801E-4,-1.7764422E-1,1.698531E-1,-8.089226E-1,-8.0950834E-2,9.542479E-3,3.017816E-1,-4.8071153E-2,-2.1244888E-3,-1.8221267E-2,6.3666506E-3,-3.3503197E-2,4.136743E-3,-4.1009553E-2,1.5153274E-2],"categories":[],"categories_nodes":[],"categories_segments":[],"categories_sizes":[],"default_left":[0,0,0,0,0,0,0,0,0,0,0,0,0,0,0],"id":33,"left_children":[1,3,5,7,9,11,13,-1,-1,-1,-1,-1,-1,-1,-1],"loss_changes":[8.946444E1,8.791434E1,3.166708E1,2.8066208E1,8.2251274E1,3.7660904E1,1.6004265E1,0E0,0E0,0E0,0E0,0E0,0E0,0E0,0E0],"parents":[2147483647,0,0,1,1,2,2,3,3,4,4,5,5,6,6],"right_children":[2,4,6,8,10,12,14,-1,-1,-1,-1,-1,-1,-1,-1],"split_conditions":[1E0,3.1187207E-1,4.5E1,1.315777E6,1E0,5.6228205E6,1E1,-4.8071153E-2,-2.1244888E-3,-1.8221267E-2,6.3666506E-3,-3.3503197E-2,4.136743E-3,-4.1009553E-2,1.5153274E-2],"split_indices":[17,11,0,1,24,4,6,0,0,0,0,0,0,0,0],"split_type":[0,0,0,0,0,0,0,0,0,0,0,0,0,0,0],"sum_hessian":[2.9539375E3,1.4508546E3,1.5030829E3,1.8662865E2,1.264226E3,6.83482E2,8.196009E2,1.4618956E2,4.0439087E1,5.2572046E2,7.385055E2,6.1809624E1,6.2167236E2,6.536398E0,8.1306445E2],"tree_param":{"num_deleted":"0","num_feature":"25","num_nodes":"15","size_leaf_vector":"1"}},{"base_weights":[4.1380944E-3,-1.7682579E-1,1.5716042E-1,-9.285644E-1,-1.02851406E-1,2.1851593E-1,-2.5632155E-1,-5.540337E-2,-8.292797E-3,-1.6772576E-2,3.906269E-3,-1.9287264E-3,1.416553E-2,-3.178536E-2,1.0441944E-2],"categories":[],"categories_nodes":[],"categories_segments":[],"categories_sizes":[],"default_left":[0,0,0,0,0,0,0,0,0,0,0,0,0,0,0],"id":34,"left_children":[1,3,5,7,9,11,13,-1,-1,-1,-1,-1,-1,-1,-1],"loss_changes":[8.200834E1,7.4131645E1,4.103325E1,1.900116E1,5.7255295E1,2.8660027E1,4.1644043E1,0E0,0E0,0E0,0E0,0E0,0E0,0E0,0E0],"parents":[2147483647,0,0,1,1,2,2,3,3,4,4,5,5,6,6],"right_children":[2,4,6,8,10,12,14,-1,-1,-1,-1,-1,-1,-1,-1],"split_conditions":[4.5E1,5.6228205E6,1E0,8.99228E5,1E0,4.33829E5,1.2027833E7,-5.540337E-2,-8.292797E-3,-1.6772576E-2,3.906269E-3,-1.9287264E-3,1.416553E-2,-3.178536E-2,1.0441944E-2],"split_indices":[0,4,16,1,24,1,4,0,0,0,0,0,0,0,0],"split_type":[0,0,0,0,0,0,0,0,0,0,0,0,0,0,0],"sum_hessian":[2.951509E3,1.3498218E3,1.6016874E3,1.14663994E2,1.2351578E3,1.3983511E3,2.0333624E2,8.485362E1,2.9810373E1,5.262199E2,7.089379E2,3.2287473E2,1.0754764E3,1.0886944E2,9.44668E1],"tree_param":{"num_deleted":"0","num_feature":"25","num_nodes":"15","size_leaf_vector":"1"}},{"base_weights":[-1.1020759E-2,-2.2547935E-1,1.20109364E-1,-5.3441805E-1,1.7856283E-2,2.9036897E-1,5.6178328E-3,-4.4935893E-2,-1.4031079E-2,-6.501921E-3,1.8428382E-2,-5.3390902E-3,1.6744351E-2,-4.726316E-3,1.1507852E-2],"categories":[],"categories_nodes":[],"categories_segments":[],"categories_sizes":[],"default_left":[0,0,0,0,0,0,0,0,0,0,0,0,0,0,0],"id":35,"left_children":[1,3,5,7,9,11,13,-1,-1,-1,-1,-1,-1,-1,-1],"loss_changes":[8.312278E1,8.479529E1,3.5474026E1,4.622087E1,3.627533E1,1.8182209E1,2.7378979E1,0E0,0E0,0E0,0E0,0E0,0E0,0E0,0E0],"parents":[2147483647,0,0,1,1,2,2,3,3,4,4,5,5,6,6],"right_children":[2,4,6,8,10,12,14,-1,-1,-1,-1,-1,-1,-1,-1],"split_conditions":[4.722667E6,1E0,3.623121E-1,1E0,1.193048E6,2.79652E5,1.101674E6,-4.4935893E-2,-1.4031079E-2,-6.501921E-3,1.8428382E-2,-5.3390902E-3,1.6744351E-2,-4.726316E-3,1.1507852E-2],"split_indices":[3,17,10,24,1,1,1,0,0,0,0,0,0,0,0],"split_type":[0,0,0,0,0,0,0,0,0,0,0,0,0,0,0],"sum_hessian":[2.9428962E3,1.1172499E3,1.8256465E3,4.9077737E2,6.264725E2,7.2835626E2,1.0972903E3,1.7560341E2,3.1517398E2,4.426474E2,1.838251E2,9.29486E1,6.3540765E2,7.597437E2,3.3754654E2],"tree_param":{"num_deleted":"0","num_feature":"25","num_nodes":"15","size_leaf_vector":"1"}},{"base_weights":[3.8446619E-3,-6.5239054E-1,4.740717E-2,-9.986186E-1,-3.5308203E-1,-1.2979117E-1,1.8582274E-1,-1.6672773E-2,-5.5786338E-2,-4.51312E-2,-7.8955265E-3,-1.796828E-2,4.375846E-3,3.238789E-3,1.4818188E-2],"categories":[],"categories_nodes":[],"categories_segments":[],"categories_sizes":[],"default_left":[0,0,0,0,0,0,0,0,0,0,0,0,0,0,0],"id":36,"left_children":[1,3,5,7,9,11,13,-1,-1,-1,-1,-1,-1,-1,-1],"loss_changes":[8.353306E1,1.6050056E1,6.772783E1,5.66671E0,1.02651E1,6.639171E1,2.241737E1,0E0,0E0,0E0,0E0,0E0,0E0,0E0,0E0],"parents":[2147483647,0,0,1,1,2,2,3,3,4,4,5,5,6,6],"right_children":[2,4,6,8,10,12,14,-1,-1,-1,-1,-1,-1,-1,-1],"split_conditions":[1.6855349E-1,1E0,1E0,5E5,6.01566E5,6.16522E6,1E0,-1.6672773E-2,-5.5786338E-2,-4.51312E-2,-7.8955265E-3,-1.796828E-2,4.375846E-3,3.238789E-3,1.4818188E-2],"split_indices":[11,17,24,9,1,3,17,0,0,0,0,0,0,0,0],"split_type":[0,0,0,0,0,0,0,0,0,0,0,0,0,0,0],"sum_hessian":[2.9259656E3,1.7658798E2,2.7493777E3,7.5122345E1,1.0146564E2,1.2036904E3,1.5456871E3,1.9748743E1,5.5373596E1,1.843715E1,8.302849E1,5.692977E2,6.3439276E2,8.00846E2,7.448411E2],"tree_param":{"num_deleted":"0","num_feature":"25","num_nodes":"15","size_leaf_vector":"1"}},{"base_weights":[-1.135573E-2,-5.3260714E-1,4.1763704E-2,-8.011421E-1,-2.69809E-1,1.0253449E-1,-3.4967843E-1,-5.45342E-2,-1.7990572E-2,-1.2418985E-3,-3.1166676E-2,-4.0413532E-3,1.043272E-2,-2.443131E-2,1.3232944E-2],"categories":[],"categories_nodes":[],"categories_segments":[],"categories_sizes":[],"default_left":[0,0,0,0,0,0,0,0,0,0,0,0,0,0,0],"id":37,"left_children":[1,3,5,7,9,11,13,-1,-1,-1,-1,-1,-1,-1,-1],"loss_changes":[8.115779E1,1.7253136E1,6.3019333E1,1.5519554E1,1.3091356E1,5.0089447E1,3.702898E1,0E0,0E0,0E0,0E0,0E0,0E0,0E0,0E0],"parents":[2147483647,0,0,1,1,2,2,3,3,4,4,5,5,6,6],"right_children":[2,4,6,8,10,12,14,-1,-1,-1,-1,-1,-1,-1,-1],"split_conditions":[1.501784E6,4.5E1,1E0,9.17333E5,4.742139E-1,4.2E1,8.888068E6,-5.45342E-2,-1.7990572E-2,-1.2418985E-3,-3.1166676E-2,-4.0413532E-3,1.043272E-2,-2.443131E-2,1.3232944E-2],"split_indices":[3,0,16,1,10,0,3,0,0,0,0,0,0,0,0],"split_type":[0,0,0,0,0,0,0,0,0,0,0,0,0,0,0],"sum_hessian":[2.9092397E3,2.6590527E2,2.6433345E3,1.2489666E2,1.4100862E2,2.2930015E3,3.5033322E2,6.3409798E1,6.1486862E1,9.069602E1,5.031259E1,8.7550116E2,1.4175002E3,2.8001752E2,7.03157E1],"tree_param":{"num_deleted":"0","num_feature":"25","num_nodes":"15","size_leaf_vector":"1"}},{"base_weights":[-7.0807696E-3,-1.7525496E-1,1.526191E-1,-5.3238136E-1,-4.438884E-2,2.632174E-1,8.706735E-3,-4.5607336E-2,-1.574582E-2,-1.5564705E-2,7.5067594E-3,-2.1179419E-2,1.4439077E-2,-1.0491964E-2,6.4650383E-3],"categories":[],"categories_nodes":[],"categories_segments":[],"categories_sizes":[],"default_left":[0,0,0,0,0,0,0,0,0,0,0,0,0,0,0],"id":38,"left_children":[1,3,5,7,9,11,13,-1,-1,-1,-1,-1,-1,-1,-1],"loss_changes":[7.870367E1,6.626195E1,2.3684502E1,3.0119385E1,6.0180172E1,2.4051079E1,1.921321E1,0E0,0E0,0E0,0E0,0E0,0E0,0E0,0E0],"parents":[2147483647,0,0,1,1,2,2,3,3,4,4,5,5,6,6],"right_children":[2,4,6,8,10,12,14,-1,-1,-1,-1,-1,-1,-1,-1],"split_conditions":[1E0,5.0612E5,4.62592E-1,5.5712134E-1,4.9325824E-1,1.6038E5,4.531182E-1,-4.5607336E-2,-1.574582E-2,-1.5564705E-2,7.5067594E-3,-2.1179419E-2,1.4439077E-2,-1.0491964E-2,6.4650383E-3],"split_indices":[17,1,10,11,11,1,11,0,0,0,0,0,0,0,0],"split_type":[0,0,0,0,0,0,0,0,0,0,0,0,0,0,0],"sum_hessian":[2.9193928E3,1.4238566E3,1.4955364E3,3.760979E2,1.0477587E3,8.404421E2,6.550943E2,1.1438376E2,2.6171414E2,4.3725113E2,6.105075E2,4.0412323E1,8.000297E2,2.3036028E2,4.2473404E2],"tree_param":{"num_deleted":"0","num_feature":"25","num_nodes":"15","size_leaf_vector":"1"}},{"base_weights":[-5.1132096E-3,-2.681605E-1,8.6915076E-2,-5.3114116E-1,9.679786E-2,-9.1122635E-2,2.358988E-1,9.919703E-4,-3.4673773E-2,-8.545045E-3,1.6865687E-2,-3.888558E-4,-3.7308834E-2,5.806E-3,2.3637775E-2],"categories":[],"categories_nodes":[],"categories_segments":[],"categories_sizes":[],"default_left":[0,0,0,0,0,0,0,0,0,0,0,0,0,0,0],"id":39,"left_children":[1,3,5,7,9,11,13,-1,-1,-1,-1,-1,-1,-1,-1],"loss_changes":[7.072595E1,7.3305786E1,5.7474354E1,4.8216637E1,2.313528E1,5.5845016E1,3.4177475E1,0E0,0E0,0E0,0E0,0E0,0E0,0E0,0E0],"parents":[2147483647,0,0,1,1,2,2,3,3,4,4,5,5,6,6],"right_children":[2,4,6,8,10,12,14,-1,-1,-1,-1,-1,-1,-1,-1],"split_conditions":[4.8835E5,6.832496E6,4.9325824E-1,2.469652E-1,1E0,1E0,1.158495E6,9.919703E-4,-3.4673773E-2,-8.545045E-3,1.6865687E-2,-3.888558E-4,-3.7308834E-2,5.806E-3,2.3637775E-2],"split_indices":[1,3,11,10,17,16,1,0,0,0,0,0,0,0,0],"split_type":[0,0,0,0,0,0,0,0,0,0,0,0,0,0,0],"sum_hessian":[2.906104E3,7.525789E2,2.153525E3,4.3712943E2,3.1544946E2,9.7988257E2,1.1736425E3,1.14467674E2,3.2266174E2,1.514486E2,1.6400089E2,8.8037494E2,9.950766E1,8.217439E2,3.5189853E2],"tree_param":{"num_deleted":"0","num_feature":"25","num_nodes":"15","size_leaf_vector":"1"}},{"base_weights":[-1.4212077E-2,-1.8258505E-1,1.2815589E-1,-3.9266512E-1,3.7870374E-2,-3.9056785E-2,2.2851807E-1,-3.0818302E-2,-4.15039E-3,1.6048217E-2,-4.656122E-3,-1.8175215E-2,4.3919766E-3,1.6876545E-2,5.4268413E-3],"categories":[],"categories_nodes":[],"categories_segments":[],"categories_sizes":[],"default_left":[0,0,0,0,0,0,0,0,0,0,0,0,0,0,0],"id":40,"left_children":[1,3,5,7,9,11,13,-1,-1,-1,-1,-1,-1,-1,-1],"loss_changes":[6.95693E1,6.1970318E1,2.6522676E1,5.204323E1,2.669562E1,2.6830067E1,1.35914955E1,0E0,0E0,0E0,0E0,0E0,0E0,0E0,0E0],"parents":[2147483647,0,0,1,1,2,2,3,3,4,4,5,5,6,6],"right_children":[2,4,6,8,10,12,14,-1,-1,-1,-1,-1,-1,-1,-1],"split_conditions":[4.5E1,6.085303E6,4.763531E6,9.17333E5,2.8722396E-1,5.42049E5,4.0700954E-1,-3.0818302E-2,-4.15039E-3,1.6048217E-2,-4.656122E-3,-1.8175215E-2,4.3919766E-3,1.6876545E-2,5.4268413E-3],"split_indices":[0,3,3,1,10,1,10,0,0,0,0,0,0,0,0],"split_type":[0,0,0,0,0,0,0,0,0,0,0,0,0,0,0],"sum_hessian":[2.8903054E3,1.3257886E3,1.5645168E3,6.7840265E2,6.47386E2,5.8540173E2,9.7911505E2,3.6686908E2,3.1153354E2,2.0131297E2,4.46073E2,1.6101645E2,4.243853E2,4.607423E2,5.1837274E2],"tree_param":{"num_deleted":"0","num_feature":"25","num_nodes":"15","size_leaf_vector":"1"}},{"base_weights":[-2.3597153E-2,-3.6570635E-1,3.9454583E-2,-7.341241E-1,-1.055707E-1,-2.1894193E-1,1.1226329E-1,-4.185057E-2,-6.07615E-3,-2.002395E-2,7.3840003E-3,-2.4659397E-2,2.4614346E-4,8.01731E-3,-1.131704E-2],"categories":[],"categories_nodes":[],"categories_segments":[],"categories_sizes":[],"default_left":[0,0,0,0,0,0,0,0,0,0,0,0,0,0,0],"id":41,"left_children":[1,3,5,7,9,11,13,-1,-1,-1,-1,-1,-1,-1,-1],"loss_changes":[6.248236E1,4.221281E1,4.5901733E1,1.46738205E1,2.269779E1,3.6074425E1,3.723943E1,0E0,0E0,0E0,0E0,0E0,0E0,0E0,0E0],"parents":[2147483647,0,0,1,1,2,2,3,3,4,4,5,5,6,6],"right_children":[2,4,6,8,10,12,14,-1,-1,-1,-1,-1,-1,-1,-1],"split_conditions":[2.308188E6,1E0,4.11007E5,1.266733E6,4.6E1,1E0,1E0,-4.185057E-2,-6.07615E-3,-2.002395E-2,7.3840003E-3,-2.4659397E-2,2.4614346E-4,8.01731E-3,-1.131704E-2],"split_indices":[3,17,1,1,0,24,16,0,0,0,0,0,0,0,0],"split_type":[0,0,0,0,0,0,0,0,0,0,0,0,0,0,0],"sum_hessian":[2.8773208E3,4.4559216E2,2.4317285E3,1.7935393E2,2.6623822E2,5.3014233E2,1.9015863E3,1.4243152E2,3.6922417E1,1.204553E2,1.4578293E2,2.2614372E2,3.039986E2,1.6442673E3,2.57319E2],"tree_param":{"num_deleted":"0","num_feature":"25","num_nodes":"15","size_leaf_vector":"1"}},{"base_weights":[-5.3449026E-3,-1.8146554E-1,1.2903138E-1,-4.929677E-1,-1.2119705E-2,-4.891806E-1,1.7009835E-1,-4.145273E-2,-1.10290665E-2,-8.148171E-3,1.6596982E-2,7.5122206E-3,-3.817373E-2,1.0395856E-2,-6.2582507E-3],"categories":[],"categories_nodes":[],"categories_segments":[],"categories_sizes":[],"default_left":[0,0,0,0,0,0,0,0,0,0,0,0,0,0,0],"id":42,"left_children":[1,3,5,7,9,11,13,-1,-1,-1,-1,-1,-1,-1,-1],"loss_changes":[6.867597E1,6.59431E1,4.1923798E1,4.1559036E1,4.7038647E1,2.170519E1,2.2393612E1,0E0,0E0,0E0,0E0,0E0,0E0,0E0,0E0],"parents":[2147483647,0,0,1,1,2,2,3,3,4,4,5,5,6,6],"right_children":[2,4,6,8,10,12,14,-1,-1,-1,-1,-1,-1,-1,-1],"split_conditions":[1E0,9.664866E6,1.6855349E-1,1E0,5.5E1,5E5,1E0,-4.145273E-2,-1.10290665E-2,-8.148171E-3,1.6596982E-2,7.5122206E-3,-3.817373E-2,1.0395856E-2,-6.2582507E-3],"split_indices":[24,4,11,17,0,9,16,0,0,0,0,0,0,0,0],"split_type":[0,0,0,0,0,0,0,0,0,0,0,0,0,0,0],"sum_hessian":[2.8898674E3,1.2521334E3,1.637734E3,4.3599973E2,8.161336E2,9.739627E1,1.5403378E3,1.7314322E2,2.628565E2,5.697382E2,2.4639542E2,3.1698467E1,6.56978E1,1.3331714E3,2.0716635E2],"tree_param":{"num_deleted":"0","num_feature":"25","num_nodes":"15","size_leaf_vector":"1"}},{"base_weights":[-0E0,-1.737804E-1,1.3307159E-1,-4.0639162E-1,5.0897773E-2,1.6886736E-1,-3.846799E-1,-3.797368E-2,-6.4445017E-3,-3.276302E-3,1.8204536E-2,-1.5764385E-2,9.458415E-3,-5.0468568E-2,-3.3261387E-3],"categories":[],"categories_nodes":[],"categories_segments":[],"categories_sizes":[],"default_left":[0,0,0,0,0,0,0,0,0,0,0,0,0,0,0],"id":43,"left_children":[1,3,5,7,9,11,13,-1,-1,-1,-1,-1,-1,-1,-1],"loss_changes":[6.714534E1,6.610381E1,3.0701649E1,6.4267166E1,2.5751072E1,2.2800945E1,2.1447662E1,0E0,0E0,0E0,0E0,0E0,0E0,0E0,0E0],"parents":[2147483647,0,0,1,1,2,2,3,3,4,4,5,5,6,6],"right_children":[2,4,6,8,10,12,14,-1,-1,-1,-1,-1,-1,-1,-1],"split_conditions":[1E0,6.052397E6,4.620693E6,1E0,9.102487E6,8.55148E5,4.306469E6,-3.797368E-2,-6.4445017E-3,-3.276302E-3,1.8204536E-2,-1.5764385E-2,9.458415E-3,-5.0468568E-2,-3.3261387E-3],"split_indices":[24,3,2,17,3,3,3,0,0,0,0,0,0,0,0],"split_type":[0,0,0,0,0,0,0,0,0,0,0,0,0,0,0],"sum_hessian":[2.8939133E3,1.2527697E3,1.6411437E3,6.149703E2,6.377994E2,1.5395808E3,1.0156288E2,2.4751501E2,3.674553E2,4.6986084E2,1.6793857E2,8.0931335E1,1.4586495E3,2.7757526E1,7.380536E1],"tree_param":{"num_deleted":"0","num_feature":"25","num_nodes":"15","size_leaf_vector":"1"}},{"base_weights":[6.98925E-3,6.0984585E-2,-3.5493028E-1,-8.940132E-2,1.7794338E-1,-8.0992687E-1,-6.278792E-2,-1.6358687E-2,4.4611334E-3,1.6159609E-2,2.2756285E-3,-1.5944014E-3,-4.9759146E-2,2.001286E-2,-1.5195992E-2],"categories":[],"categories_nodes":[],"categories_segments":[],"categories_sizes":[],"default_left":[0,0,0,0,0,0,0,0,0,0,0,0,0,0,0],"id":44,"left_children":[1,3,5,7,9,11,13,-1,-1,-1,-1,-1,-1,-1,-1],"loss_changes":[5.6420273E1,4.451498E1,4.8904594E1,5.14845E1,2.941431E1,2.523639E1,2.9529219E1,0E0,0E0,0E0,0E0,0E0,0E0,0E0,0E0],"parents":[2147483647,0,0,1,1,2,2,3,3,4,4,5,5,6,6],"right_children":[2,4,6,8,10,12,14,-1,-1,-1,-1,-1,-1,-1,-1],"split_conditions":[1E0,1E0,5.886592E6,4.4E1,2.057183E6,2.3895903E-2,2.9921424E-1,-1.6358687E-2,4.4611334E-3,1.6159609E-2,2.2756285E-3,-1.5944014E-3,-4.9759146E-2,2.001286E-2,-1.5195992E-2],"split_indices":[16,24,3,0,2,7,10,0,0,0,0,0,0,0,0],"split_type":[0,0,0,0,0,0,0,0,0,0,0,0,0,0,0],"sum_hessian":[2.8866384E3,2.5173567E3,3.6928174E2,1.0992208E3,1.4181359E3,1.3983043E2,2.294513E2,4.6056662E2,6.386542E2,6.291308E2,7.89005E2,3.4274853E1,1.0555557E2,7.738421E1,1.520671E2],"tree_param":{"num_deleted":"0","num_feature":"25","num_nodes":"15","size_leaf_vector":"1"}},{"base_weights":[5.000399E-3,-5.8536017E-1,4.0979486E-2,-9.126035E-1,-3.1940028E-1,9.278007E-2,-3.0111113E-1,-4.6720523E-2,7.7594565E-3,-2.953181E-2,-2.5906647E-3,6.9572154E-4,1.4980057E-2,-2.4000017E-2,6.4317766E-3],"categories":[],"categories_nodes":[],"categories_segments":[],"categories_sizes":[],"default_left":[0,0,0,0,0,0,0,0,0,0,0,0,0,0,0],"id":45,"left_children":[1,3,5,7,9,11,13,-1,-1,-1,-1,-1,-1,-1,-1],"loss_changes":[6.1188015E1,1.2006496E1,4.8423054E1,6.383007E0,7.322809E0,4.0863403E1,3.2138718E1,0E0,0E0,0E0,0E0,0E0,0E0,0E0,0E0],"parents":[2147483647,0,0,1,1,2,2,3,3,4,4,5,5,6,6],"right_children":[2,4,6,8,10,12,14,-1,-1,-1,-1,-1,-1,-1,-1],"split_conditions":[1.6855349E-1,1E0,1E0,6.3E1,1E0,1.169525E6,5.4E1,-4.6720523E-2,7.7594565E-3,-2.953181E-2,-2.5906647E-3,6.9572154E-4,1.4980057E-2,-2.4000017E-2,6.4317766E-3],"split_indices":[11,17,16,0,24,1,0,0,0,0,0,0,0,0,0],"split_type":[0,0,0,0,0,0,0,0,0,0,0,0,0,0,0],"sum_hessian":[2.887512E3,1.6016008E2,2.7273518E3,6.4921616E1,9.5238464E1,2.3737686E3,3.5358328E2,6.222242E1,2.6991956E0,4.022778E1,5.501069E1,1.7597588E3,6.1400977E2,2.4230655E2,1.1127673E2],"tree_param":{"num_deleted":"0","num_feature":"25","num_nodes":"15","size_leaf_vector":"1"}},{"base_weights":[9.4225345E-4,-1.4047994E-1,1.3679335E-1,-6.604824E-1,-6.90213E-2,5.0461166E-2,2.9345477E-1,-4.4311367E-2,-3.6468848E-3,-1.8657083E-2,2.2167703E-3,-8.780277E-3,7.661256E-3,2.598064E-2,9.3197E-3],"categories":[],"categories_nodes":[],"categories_segments":[],"categories_sizes":[],"default_left":[0,0,0,0,0,0,0,0,0,0,0,0,0,0,0],"id":46,"left_children":[1,3,5,7,9,11,13,-1,-1,-1,-1,-1,-1,-1,-1],"loss_changes":[5.5579697E1,5.182821E1,1.9672768E1,2.5372063E1,4.6811924E1,2.4946335E1,1.1764572E1,0E0,0E0,0E0,0E0,0E0,0E0,0E0,0E0],"parents":[2147483647,0,0,1,1,2,2,3,3,4,4,5,5,6,6],"right_children":[2,4,6,8,10,12,14,-1,-1,-1,-1,-1,-1,-1,-1],"split_conditions":[1E0,3.1187207E-1,6.832496E6,1.224804E6,4.8835E5,5.80901E5,2.7691528E-1,-4.4311367E-2,-3.6468848E-3,-1.8657083E-2,2.2167703E-3,-8.780277E-3,7.661256E-3,2.598064E-2,9.3197E-3],"split_indices":[17,11,3,1,1,1,10,0,0,0,0,0,0,0,0],"split_type":[0,0,0,0,0,0,0,0,0,0,0,0,0,0,0],"sum_hessian":[2.8825806E3,1.4097179E3,1.4728625E3,1.6392223E2,1.2457958E3,9.569184E2,5.159442E2,1.0947275E2,5.4449474E1,3.2727075E2,9.1852496E2,3.0252634E2,6.54392E2,1.3654994E2,3.7939426E2],"tree_param":{"num_deleted":"0","num_feature":"25","num_nodes":"15","size_leaf_vector":"1"}},{"base_weights":[3.2794883E-3,-1.588876E-1,1.2808777E-1,-4.418747E-1,6.9380146E-3,-3.9350188E-1,1.6366865E-1,-3.825928E-2,-9.428099E-3,-1.0819235E-2,9.164651E-3,-4.173934E-2,-9.243206E-4,9.08581E-3,-1.09235905E-2],"categories":[],"categories_nodes":[],"categories_segments":[],"categories_sizes":[],"default_left":[0,0,0,0,0,0,0,0,0,0,0,0,0,0,0],"id":47,"left_children":[1,3,5,7,9,11,13,-1,-1,-1,-1,-1,-1,-1,-1],"loss_changes":[5.813433E1,5.88498E1,3.035357E1,3.9105667E1,3.4343575E1,1.8014614E1,1.6170986E1,0E0,0E0,0E0,0E0,0E0,0E0,0E0,0E0],"parents":[2147483647,0,0,1,1,2,2,3,3,4,4,5,5,6,6],"right_children":[2,4,6,8,10,12,14,-1,-1,-1,-1,-1,-1,-1,-1],"split_conditions":[1E0,4.2E1,1.6855349E-1,1.020881E7,1E0,1E0,4.620693E6,-3.825928E-2,-9.428099E-3,-1.0819235E-2,9.164651E-3,-4.173934E-2,-9.243206E-4,9.08581E-3,-1.09235905E-2],"split_indices":[24,0,11,4,17,17,2,0,0,0,0,0,0,0,0],"split_type":[0,0,0,0,0,0,0,0,0,0,0,0,0,0,0],"sum_hessian":[2.8628489E3,1.242018E3,1.6208308E3,4.5723767E2,7.847803E2,9.888732E1,1.5219435E3,1.7905199E2,2.7818567E2,3.4470102E2,4.4007925E2,3.9395638E1,5.9491684E1,1.429386E3,9.255756E1],"tree_param":{"num_deleted":"0","num_feature":"25","num_nodes":"15","size_leaf_vector":"1"}},{"base_weights":[-0E0,-5.5131173E-1,3.3468436E-2,-8.660418E-1,-3.151235E-1,-2.3146963E-1,1.0695201E-1,-7.2069233E-3,-5.1237457E-2,1.9137304E-2,-2.0548465E-2,-1.5665598E-2,1.06395455E-2,-1.6696169E-3,9.716879E-3],"categories":[],"categories_nodes":[],"categories_segments":[],"categories_sizes":[],"default_left":[0,0,0,0,0,0,0,0,0,0,0,0,0,0,0],"id":48,"left_children":[1,3,5,7,9,11,13,-1,-1,-1,-1,-1,-1,-1,-1],"loss_changes":[5.3135296E1,9.997879E0,5.2767277E1,8.132992E0,9.480689E0,2.6263758E1,2.929358E1,0E0,0E0,0E0,0E0,0E0,0E0,0E0,0E0],"parents":[2147483647,0,0,1,1,2,2,3,3,4,4,5,5,6,6],"right_children":[2,4,6,8,10,12,14,-1,-1,-1,-1,-1,-1,-1,-1],"split_conditions":[1.6855349E-1,1E0,4.11007E5,5E5,6E0,8.7787E6,4.9325824E-1,-7.2069233E-3,-5.1237457E-2,1.9137304E-2,-2.0548465E-2,-1.5665598E-2,1.06395455E-2,-1.6696169E-3,9.716879E-3],"split_indices":[11,17,1,9,8,3,11,0,0,0,0,0,0,0,0],"split_type":[0,0,0,0,0,0,0,0,0,0,0,0,0,0,0],"sum_hessian":[2.8625757E3,1.5960504E2,2.7029705E3,6.1171074E1,9.8433975E1,5.824001E2,2.1205706E3,1.6533619E1,4.4637455E1,1.101149E1,8.7422485E1,4.8269495E2,9.970513E1,8.571174E2,1.2634531E3],"tree_param":{"num_deleted":"0","num_feature":"25","num_nodes":"15","size_leaf_vector":"1"}},{"base_weights":[-1.419183E-2,-1.7821032E-1,1.10020034E-1,-3.2154453E-1,1.5010636E-1,1.4143251E-1,-3.4057397E-1,-3.2238375E-2,-6.033478E-3,1.609618E-2,-6.1526103E-3,2.6573208E-3,1.3048662E-2,-3.8302455E-2,5.0756168E-3],"categories":[],"categories_nodes":[],"categories_segments":[],"categories_sizes":[],"default_left":[0,0,0,0,0,0,0,0,0,0,0,0,0,0,0],"id":49,"left_children":[1,3,5,7,9,11,13,-1,-1,-1,-1,-1,-1,-1,-1],"loss_changes":[5.826824E1,5.8433228E1,2.3101076E1,5.849958E1,2.004747E1,1.6923439E1,2.2790508E1,0E0,0E0,0E0,0E0,0E0,0E0,0E0,0E0],"parents":[2147483647,0,0,1,1,2,2,3,3,4,4,5,5,6,6],"right_children":[2,4,6,8,10,12,14,-1,-1,-1,-1,-1,-1,-1,-1],"split_conditions":[1E0,5.5E1,4.620693E6,4.8913676E-1,4.6602422E-1,1.1272208E7,4.6617168E-1,-3.2238375E-2,-6.033478E-3,1.609618E-2,-6.1526103E-3,2.6573208E-3,1.3048662E-2,-3.8302455E-2,5.0756168E-3],"split_indices":[24,0,2,11,10,4,11,0,0,0,0,0,0,0,0],"split_type":[0,0,0,0,0,0,0,0,0,0,0,0,0,0,0],"sum_hessian":[2.847452E3,1.228549E3,1.618903E3,8.567542E2,3.7179468E2,1.5182084E3,1.006946E2,2.987774E2,5.579768E2,2.234188E2,1.4837587E2,9.27662E2,5.9054645E2,4.8249496E1,5.2445107E1],"tree_param":{"num_deleted":"0","num_feature":"25","num_nodes":"15","size_leaf_vector":"1"}},{"base_weights":[-6.3564065E-3,1.0815558E-1,-1.4193864E-1,-9.924724E-2,1.9303386E-1,-3.3583194E-1,-3.8986749E-3,-4.6864245E-2,-2.694592E-4,1.5595496E-2,2.6907113E-3,-3.861499E-2,-7.2184564E-3,3.1641417E-3,-2.1151992E-2],"categories":[],"categories_nodes":[],"categories_segments":[],"categories_sizes":[],"default_left":[0,0,0,0,0,0,0,0,0,0,0,0,0,0,0],"id":50,"left_children":[1,3,5,7,9,11,13,-1,-1,-1,-1,-1,-1,-1,-1],"loss_changes":[4.4480225E1,2.7446583E1,3.491843E1,3.653644E1,1.9795746E1,4.6212364E1,2.429595E1,0E0,0E0,0E0,0E0,0E0,0E0,0E0,0E0],"parents":[2147483647,0,0,1,1,2,2,3,3,4,4,5,5,6,6],"right_children":[2,4,6,8,10,12,14,-1,-1,-1,-1,-1,-1,-1,-1],"split_conditions":[4.5631486E-1,5.42049E5,1E0,3.318892E-1,2.938277E-2,4.5134205E-1,1E0,-4.6864245E-2,-2.694592E-4,1.5595496E-2,2.6907113E-3,-3.861499E-2,-7.2184564E-3,3.1641417E-3,-2.1151992E-2],"split_indices":[10,1,24,11,7,11,16,0,0,0,0,0,0,0,0],"split_type":[0,0,0,0,0,0,0,0,0,0,0,0,0,0,0],"sum_hessian":[2.852993E3,1.5444513E3,1.3085417E3,4.4585443E2,1.0985969E3,5.3895044E2,7.6959125E2,3.7281105E1,4.085733E2,5.4921014E2,5.493867E2,1.4527919E2,3.9367126E2,6.660134E2,1.0357784E2],"tree_param":{"num_deleted":"0","num_feature":"25","num_nodes":"15","size_leaf_vector":"1"}},{"base_weights":[-2.3865294E-2,-3.3827212E-1,3.1308897E-2,-6.882841E-1,-5.4538935E-2,-9.872336E-2,1.349853E-1,-3.8168855E-2,-1.0572361E-2,2.5762855E-3,-4.2860724E-2,-1.6512092E-2,2.353542E-3,1.938354E-2,4.448902E-3],"categories":[],"categories_nodes":[],"categories_segments":[],"categories_sizes":[],"default_left":[0,0,0,0,0,0,0,0,0,0,0,0,0,0,0],"id":51,"left_children":[1,3,5,7,9,11,13,-1,-1,-1,-1,-1,-1,-1,-1],"loss_changes":[4.9033897E1,4.1191547E1,3.237306E1,8.086044E0,2.2789146E1,3.9153103E1,1.4602266E1,0E0,0E0,0E0,0E0,0E0,0E0,0E0,0E0],"parents":[2147483647,0,0,1,1,2,2,3,3,4,4,5,5,6,6],"right_children":[2,4,6,8,10,12,14,-1,-1,-1,-1,-1,-1,-1,-1],"split_conditions":[2.308188E6,4.5E1,1E0,8.292995E6,3.679907E-2,4.2E1,5.45427E5,-3.8168855E-2,-1.0572361E-2,2.5762855E-3,-4.2860724E-2,-1.6512092E-2,2.353542E-3,1.938354E-2,4.448902E-3],"split_indices":[3,0,24,4,7,0,2,0,0,0,0,0,0,0,0],"split_type":[0,0,0,0,0,0,0,0,0,0,0,0,0,0,0],"sum_hessian":[2.8058054E3,4.1676077E2,2.3890447E3,1.821416E2,2.3461916E2,1.0569275E3,1.3321171E3,1.4287668E2,3.9264927E1,2.1147545E2,2.314371E1,3.9505872E2,6.6186884E2,1.6965868E2,1.1624585E3],"tree_param":{"num_deleted":"0","num_feature":"25","num_nodes":"15","size_leaf_vector":"1"}},{"base_weights":[5.80862E-3,-1.7777722E-1,9.9366814E-2,-3.6470276E-1,8.1900485E-2,-5.025763E-2,2.1217528E-1,4.9301917E-3,-2.5312297E-2,1.0296003E-2,-1.15400655E-2,-1.2181566E-2,5.108078E-3,7.3518613E-3,3.342922E-2],"categories":[],"categories_nodes":[],"categories_segments":[],"categories_sizes":[],"default_left":[0,0,0,0,0,0,0,0,0,0,0,0,0,0,0],"id":52,"left_children":[1,3,5,7,9,11,13,-1,-1,-1,-1,-1,-1,-1,-1],"loss_changes":[4.8962112E1,4.6997936E1,3.2116657E1,4.4052628E1,1.7781807E1,2.6512192E1,2.9583801E1,0E0,0E0,0E0,0E0,0E0,0E0,0E0,0E0],"parents":[2147483647,0,0,1,1,2,2,3,3,4,4,5,5,6,6],"right_children":[2,4,6,8,10,12,14,-1,-1,-1,-1,-1,-1,-1,-1],"split_conditions":[5.95255E5,6.832496E6,4.7177485E-1,2.469652E-1,3.3997852E-2,1E0,1.415361E6,4.9301917E-3,-2.5312297E-2,1.0296003E-2,-1.15400655E-2,-1.2181566E-2,5.108078E-3,7.3518613E-3,3.342922E-2],"split_indices":[1,3,11,10,7,17,1,0,0,0,0,0,0,0,0],"split_type":[0,0,0,0,0,0,0,0,0,0,0,0,0,0,0],"sum_hessian":[2.8432004E3,9.5568933E2,1.8875111E3,5.560236E2,3.9966577E2,8.099374E2,1.0775737E3,1.4466995E2,4.1135364E2,2.8555002E2,1.14115746E2,3.5220724E2,4.577301E2,9.7022705E2,1.073467E2],"tree_param":{"num_deleted":"0","num_feature":"25","num_nodes":"15","size_leaf_vector":"1"}},{"base_weights":[-9.535633E-3,4.2534254E-2,-3.6951983E-1,-8.515882E-2,1.4182688E-1,-7.937805E-1,-1.1034589E-1,-1.6414806E-2,4.6143695E-3,8.2217585E-3,-1.465347E-2,-0E0,-4.995542E-2,-2.0530432E-2,1.0228035E-2],"categories":[],"categories_nodes":[],"categories_segments":[],"categories_sizes":[],"default_left":[0,0,0,0,0,0,0,0,0,0,0,0,0,0,0],"id":53,"left_children":[1,3,5,7,9,11,13,-1,-1,-1,-1,-1,-1,-1,-1],"loss_changes":[5.3605053E1,3.1634287E1,3.866069E1,5.151727E1,1.9329323E1,2.6449997E1,2.4658081E1,0E0,0E0,0E0,0E0,0E0,0E0,0E0,0E0],"parents":[2147483647,0,0,1,1,2,2,3,3,4,4,5,5,6,6],"right_children":[2,4,6,8,10,12,14,-1,-1,-1,-1,-1,-1,-1,-1],"split_conditions":[1E0,1E0,5.886592E6,1.0244591E7,4.620693E6,2.3895903E-2,8.78267E5,-1.6414806E-2,4.6143695E-3,8.2217585E-3,-1.465347E-2,-0E0,-4.995542E-2,-2.0530432E-2,1.0228035E-2],"split_indices":[16,24,3,4,2,7,1,0,0,0,0,0,0,0,0],"split_type":[0,0,0,0,0,0,0,0,0,0,0,0,0,0,0],"sum_hessian":[2.837961E3,2.4816694E3,3.5629147E2,1.0828219E3,1.3988475E3,1.2999538E2,2.262961E2,4.4660916E2,6.3621277E2,1.3146151E3,8.423243E1,3.3250534E1,9.674485E1,1.1423839E2,1.120577E2],"tree_param":{"num_deleted":"0","num_feature":"25","num_nodes":"15","size_leaf_vector":"1"}},{"base_weights":[9.574068E-3,-1.19653545E-1,1.3298245E-1,-3.0893834E-2,-5.946533E-1,2.3436958E-1,9.586007E-4,-4.179183E-2,9.361434E-4,-4.1869175E-2,-7.0461975E-3,2.660533E-2,8.899997E-3,-1.0217237E-2,7.863014E-3],"categories":[],"categories_nodes":[],"categories_segments":[],"categories_sizes":[],"default_left":[0,0,0,0,0,0,0,0,0,0,0,0,0,0,0],"id":54,"left_children":[1,3,5,7,9,11,13,-1,-1,-1,-1,-1,-1,-1,-1],"loss_changes":[4.5342327E1,5.7900215E1,1.9331535E1,5.0781532E1,2.5956299E1,1.1645256E1,2.2711714E1,0E0,0E0,0E0,0E0,0E0,0E0,0E0,0E0],"parents":[2147483647,0,0,1,1,2,2,3,3,4,4,5,5,6,6],"right_children":[2,4,6,8,10,12,14,-1,-1,-1,-1,-1,-1,-1,-1],"split_conditions":[1E0,1E0,4.62592E-1,1.217641E6,5.1E1,5.15882E5,1E0,-4.179183E-2,9.361434E-4,-4.1869175E-2,-7.0461975E-3,2.660533E-2,8.899997E-3,-1.0217237E-2,7.863014E-3],"split_indices":[17,22,10,3,0,2,24,0,0,0,0,0,0,0,0],"split_type":[0,0,0,0,0,0,0,0,0,0,0,0,0,0,0],"sum_hessian":[2.8321362E3,1.380756E3,1.4513804E3,1.1693047E3,2.1145126E2,8.156466E2,6.357338E2,6.194085E1,1.1073638E3,1.25556015E2,8.589525E1,9.637994E1,7.1926666E2,2.723244E2,3.6340942E2],"tree_param":{"num_deleted":"0","num_feature":"25","num_nodes":"15","size_leaf_vector":"1"}},{"base_weights":[-4.3119784E-3,-1.360822E-1,1.1929827E-1,-6.735895E-1,-6.814942E-2,-9.917491E-1,1.3219646E-1,-4.0642094E-2,-7.981836E-3,-1.2162632E-2,6.1005554E-3,4.034905E-3,-6.466258E-2,1.8572345E-2,4.4930326E-3],"categories":[],"categories_nodes":[],"categories_segments":[],"categories_sizes":[],"default_left":[0,0,0,0,0,0,0,0,0,0,0,0,0,0,0],"id":55,"left_children":[1,3,5,7,9,11,13,-1,-1,-1,-1,-1,-1,-1,-1],"loss_changes":[4.6207863E1,4.946363E1,2.1017475E1,1.2273018E1,4.5162235E1,8.028984E0,1.3645E1,0E0,0E0,0E0,0E0,0E0,0E0,0E0,0E0],"parents":[2147483647,0,0,1,1,2,2,3,3,4,4,5,5,6,6],"right_children":[2,4,6,8,10,12,14,-1,-1,-1,-1,-1,-1,-1,-1],"split_conditions":[1E0,3.1187207E-1,1E1,1.266733E6,8.39908E5,8.06053E5,5.45427E5,-4.0642094E-2,-7.981836E-3,-1.2162632E-2,6.1005554E-3,4.034905E-3,-6.466258E-2,1.8572345E-2,4.4930326E-3],"split_indices":[17,11,6,1,1,2,2,0,0,0,0,0,0,0,0],"split_type":[0,0,0,0,0,0,0,0,0,0,0,0,0,0,0],"sum_hessian":[2.8257297E3,1.3702075E3,1.4555222E3,1.4735075E2,1.2228568E3,1.1522459E1,1.4439998E3,1.0541213E2,4.1938625E1,6.273532E2,5.9550354E2,3.4291697E0,8.093289E0,1.7787697E2,1.2661227E3],"tree_param":{"num_deleted":"0","num_feature":"25","num_nodes":"15","size_leaf_vector":"1"}},{"base_weights":[8.688836E-3,-1.39055E-1,1.2137172E-1,-4.0998414E-1,1.1872242E-3,1.5249881E-1,-3.2619908E-1,-3.3794284E-2,-1.1372211E-2,1.1412354E-2,-8.231176E-3,9.214518E-3,-5.765612E-3,-5.5313725E-2,-1.6504001E-3],"categories":[],"categories_nodes":[],"categories_segments":[],"categories_sizes":[],"default_left":[0,0,0,0,0,0,0,0,0,0,0,0,0,0,0],"id":56,"left_children":[1,3,5,7,9,11,13,-1,-1,-1,-1,-1,-1,-1,-1],"loss_changes":[4.7255062E1,4.686899E1,2.2612944E1,1.9938858E1,3.3762688E1,1.692509E1,2.4468601E1,0E0,0E0,0E0,0E0,0E0,0E0,0E0,0E0],"parents":[2147483647,0,0,1,1,2,2,3,3,4,4,5,5,6,6],"right_children":[2,4,6,8,10,12,14,-1,-1,-1,-1,-1,-1,-1,-1],"split_conditions":[1E0,9.664866E6,4.620693E6,4.2E1,3.623121E-1,1E0,3.553009E-1,-3.3794284E-2,-1.1372211E-2,1.1412354E-2,-8.231176E-3,9.214518E-3,-5.765612E-3,-5.5313725E-2,-1.6504001E-3],"split_indices":[24,4,2,0,10,16,11,0,0,0,0,0,0,0,0],"split_type":[0,0,0,0,0,0,0,0,0,0,0,0,0,0,0],"sum_hessian":[2.8286536E3,1.2206984E3,1.6079552E3,4.1462558E2,8.0607275E2,1.5080876E3,9.9867615E1,1.4418724E2,2.7043832E2,3.409621E2,4.6511066E2,1.3169568E3,1.9113081E2,2.1250832E1,7.861678E1],"tree_param":{"num_deleted":"0","num_feature":"25","num_nodes":"15","size_leaf_vector":"1"}},{"base_weights":[-7.048999E-3,-2.4518208E-1,5.598646E-2,1.2894574E-1,-4.1044912E-1,-7.610174E-2,1.5997666E-1,-3.2711983E-2,1.3341689E-2,-3.1083701E-2,-5.6511965E-3,-5.73767E-4,-3.2133795E-2,3.7583676E-3,1.942836E-2],"categories":[],"categories_nodes":[],"categories_segments":[],"categories_sizes":[],"default_left":[0,0,0,0,0,0,0,0,0,0,0,0,0,0,0],"id":57,"left_children":[1,3,5,7,9,11,13,-1,-1,-1,-1,-1,-1,-1,-1],"loss_changes":[4.2519375E1,3.7159473E1,3.0765608E1,2.3322575E1,2.8160957E1,3.7093987E1,2.4633701E1,0E0,0E0,0E0,0E0,0E0,0E0,0E0,0E0],"parents":[2147483647,0,0,1,1,2,2,3,3,4,4,5,5,6,6],"right_children":[2,4,6,8,10,12,14,-1,-1,-1,-1,-1,-1,-1,-1],"split_conditions":[4.11007E5,2.7691528E-1,4.9325824E-1,1E0,6.733314E-1,1E0,1.193048E6,-3.2711983E-2,1.3341689E-2,-3.1083701E-2,-5.6511965E-3,-5.73767E-4,-3.2133795E-2,3.7583676E-3,1.942836E-2],"split_indices":[1,10,11,5,11,16,1,0,0,0,0,0,0,0,0],"split_type":[0,0,0,0,0,0,0,0,0,0,0,0,0,0,0],"sum_hessian":[2.813734E3,5.880831E2,2.225651E3,1.792388E2,4.0884433E2,9.780287E2,1.2476221E3,2.4339462E1,1.5489934E2,2.1932115E2,1.8952318E2,8.890989E2,8.892981E1,9.460969E2,3.0152518E2],"tree_param":{"num_deleted":"0","num_feature":"25","num_nodes":"15","size_leaf_vector":"1"}},{"base_weights":[-1.5034724E-3,-4.8601198E-1,2.5742665E-2,6.985022E-2,-5.761435E-1,-1.9664517E-1,8.789328E-2,2.3792857E-2,-2.2383174E-2,-4.2236876E-2,-1.2750645E-2,-1.9337917E-2,-2.6426525E-4,6.118297E-3,-8.315888E-3],"categories":[],"categories_nodes":[],"categories_segments":[],"categories_sizes":[],"default_left":[0,0,0,0,0,0,0,0,0,0,0,0,0,0,0],"id":58,"left_children":[1,3,5,7,9,11,13,-1,-1,-1,-1,-1,-1,-1,-1],"loss_changes":[3.74055E1,8.1267395E0,3.6758377E1,6.931643E0,1.0499077E1,2.2795021E1,2.207299E1,0E0,0E0,0E0,0E0,0E0,0E0,0E0,0E0],"parents":[2147483647,0,0,1,1,2,2,3,3,4,4,5,5,6,6],"right_children":[2,4,6,8,10,12,14,-1,-1,-1,-1,-1,-1,-1,-1],"split_conditions":[1.6855349E-1,1.19523E5,4.11007E5,3.74E2,3.162197E6,1E0,1E0,2.3792857E-2,-2.2383174E-2,-4.2236876E-2,-1.2750645E-2,-1.9337917E-2,-2.6426525E-4,6.118297E-3,-8.315888E-3],"split_indices":[11,3,1,6,2,17,16,0,0,0,0,0,0,0,0],"split_type":[0,0,0,0,0,0,0,0,0,0,0,0,0,0,0],"sum_hessian":[2.7989263E3,1.456937E2,2.6532324E3,1.940789E1,1.26285805E2,5.746001E2,2.0786326E3,1.1751576E1,7.656314E0,5.7183464E1,6.910235E1,2.7030368E2,3.0429642E2,1.8064633E3,2.7216922E2],"tree_param":{"num_deleted":"0","num_feature":"25","num_nodes":"15","size_leaf_vector":"1"}},{"base_weights":[3.2716487E-3,-1.250956E-1,1.1270796E-1,-3.3593404E-1,2.1804545E-2,3.35135E-1,5.6699876E-2,-2.6759889E-2,-6.5194243E-3,-2.0059727E-2,3.408238E-3,3.059336E-3,2.1636562E-2,-3.4003162E-3,1.0252205E-2],"categories":[],"categories_nodes":[],"categories_segments":[],"categories_sizes":[],"default_left":[0,0,0,0,0,0,0,0,0,0,0,0,0,0,0],"id":59,"left_children":[1,3,5,7,9,11,13,-1,-1,-1,-1,-1,-1,-1,-1],"loss_changes":[3.968102E1,4.0438663E1,1.866104E1,2.306657E1,1.6733774E1,9.207317E0,2.5036533E1,0E0,0E0,0E0,0E0,0E0,0E0,0E0,0E0],"parents":[2147483647,0,0,1,1,2,2,3,3,4,4,5,5,6,6],"right_children":[2,4,6,8,10,12,14,-1,-1,-1,-1,-1,-1,-1,-1],"split_conditions":[4.5E1,1E0,9.03321E5,1E0,5.8318925E6,3.43154E5,1.1685868E7,-2.6759889E-2,-6.5194243E-3,-2.0059727E-2,3.408238E-3,3.059336E-3,2.1636562E-2,-3.4003162E-3,1.0252205E-2],"split_indices":[0,24,2,17,4,2,4,0,0,0,0,0,0,0,0],"split_type":[0,0,0,0,0,0,0,0,0,0,0,0,0,0,0],"sum_hessian":[2.814798E3,1.2920698E3,1.5227283E3,5.29762E2,7.6230774E2,2.985398E2,1.2241885E3,2.4302298E2,2.8673907E2,7.152529E1,6.907824E2,9.483315E1,2.0370665E2,6.7570605E2,5.484824E2],"tree_param":{"num_deleted":"0","num_feature":"25","num_nodes":"15","size_leaf_vector":"1"}},{"base_weights":[-1.0065777E-2,-1.2200641E-1,9.5146045E-2,-8.72498E-1,-7.9839356E-2,-6.3822135E-2,1.6482556E-1,-4.4738106E-2,4.7494876E-3,7.6539065E-3,-9.277688E-3,-3.3215087E-2,6.531073E-4,1.2577217E-2,1.3168786E-3],"categories":[],"categories_nodes":[],"categories_segments":[],"categories_sizes":[],"default_left":[0,0,0,0,0,0,0,0,0,0,0,0,0,0,0],"id":60,"left_children":[1,3,5,7,9,11,13,-1,-1,-1,-1,-1,-1,-1,-1],"loss_changes":[3.309219E1,4.2121147E1,1.6128021E1,5.540283E0,3.586933E1,2.2123325E1,1.3413656E1,0E0,0E0,0E0,0E0,0E0,0E0,0E0,0E0],"parents":[2147483647,0,0,1,1,2,2,3,3,4,4,5,5,6,6],"right_children":[2,4,6,8,10,12,14,-1,-1,-1,-1,-1,-1,-1,-1],"split_conditions":[1E0,1.217641E6,5.42049E5,6.3E1,3.0841607E-1,3.4505114E-1,4.62592E-1,-4.4738106E-2,4.7494876E-3,7.6539065E-3,-9.277688E-3,-3.3215087E-2,6.531073E-4,1.2577217E-2,1.3168786E-3],"split_indices":[17,3,1,0,10,11,10,0,0,0,0,0,0,0,0],"split_type":[0,0,0,0,0,0,0,0,0,0,0,0,0,0,0],"sum_hessian":[2.797797E3,1.3583721E3,1.4394252E3,6.589571E1,1.2924763E3,4.3573038E2,1.0036948E3,6.264122E1,3.254491E0,4.146004E2,8.778759E2,4.4029694E1,3.9170068E2,5.78257E2,4.254378E2],"tree_param":{"num_deleted":"0","num_feature":"25","num_nodes":"15","size_leaf_vector":"1"}},{"base_weights":[6.025792E-3,-1.1904182E-1,1.0235322E-1,-1.835104E-1,3.6000177E-1,-8.016741E-1,1.14971854E-1,-3.9045906E-4,-2.0475091E-2,-2.4683055E-2,2.2783699E-2,-5.5476204E-2,3.5445383E-4,4.067147E-3,2.1506261E-2],"categories":[],"categories_nodes":[],"categories_segments":[],"categories_sizes":[],"default_left":[0,0,0,0,0,0,0,0,0,0,0,0,0,0,0],"id":61,"left_children":[1,3,5,7,9,11,13,-1,-1,-1,-1,-1,-1,-1,-1],"loss_changes":[3.397389E1,3.8033768E1,1.8214518E1,4.6303875E1,1.6243477E1,7.230276E0,1.5209946E1,0E0,0E0,0E0,0E0,0E0,0E0,0E0,0E0],"parents":[2147483647,0,0,1,1,2,2,3,3,4,4,5,5,6,6],"right_children":[2,4,6,8,10,12,14,-1,-1,-1,-1,-1,-1,-1,-1],"split_conditions":[1E0,9.267949E6,1.3E1,4.6602422E-1,3.17913E5,6.58989E-1,7.825273E-1,-3.9045906E-4,-2.0475091E-2,-2.4683055E-2,2.2783699E-2,-5.5476204E-2,3.5445383E-4,4.067147E-3,2.1506261E-2],"split_indices":[24,3,6,10,1,11,11,0,0,0,0,0,0,0,0],"split_type":[0,0,0,0,0,0,0,0,0,0,0,0,0,0,0],"sum_hessian":[2.8104524E3,1.2191078E3,1.5913446E3,1.0786378E3,1.4047002E2,1.6637682E1,1.5747069E3,6.339172E2,4.4472058E2,1.3753797E1,1.2671622E2,1.0530666E1,6.107015E0,1.4542689E3,1.204379E2],"tree_param":{"num_deleted":"0","num_feature":"25","num_nodes":"15","size_leaf_vector":"1"}},{"base_weights":[7.1617435E-3,-1.3851112E-1,9.839712E-2,-2.1845952E-1,1.9263805E-1,-5.366066E-2,1.6404119E-1,-1.9928232E-2,-1.8429399E-3,2.1792023E-2,-4.1626925E-3,-2.3646258E-2,6.642952E-3,1.7226259E-4,1.2322374E-2],"categories":[],"categories_nodes":[],"categories_segments":[],"categories_sizes":[],"default_left":[0,0,0,0,0,0,0,0,0,0,0,0,0,0,0],"id":62,"left_children":[1,3,5,7,9,11,13,-1,-1,-1,-1,-1,-1,-1,-1],"loss_changes":[3.7422836E1,2.8892982E1,1.7445595E1,3.0943619E1,1.6085758E1,4.522912E1,1.8172184E1,0E0,0E0,0E0,0E0,0E0,0E0,0E0,0E0],"parents":[2147483647,0,0,1,1,2,2,3,3,4,4,5,5,6,6],"right_children":[2,4,6,8,10,12,14,-1,-1,-1,-1,-1,-1,-1,-1],"split_conditions":[4.2E1,8.617804E6,5.42049E5,1E0,2.9638015E-2,5.5314666E-1,4.5134205E-1,-1.9928232E-2,-1.8429399E-3,2.1792023E-2,-4.1626925E-3,-2.3646258E-2,6.642952E-3,1.7226259E-4,1.2322374E-2],"split_indices":[0,3,1,17,7,11,11,0,0,0,0,0,0,0,0],"split_type":[0,0,0,0,0,0,0,0,0,0,0,0,0,0,0],"sum_hessian":[2.8072683E3,1.0771023E3,1.7301659E3,8.707705E2,2.0633179E2,5.1877136E2,1.2113945E3,4.082982E2,4.6247235E2,1.0579184E2,1.0053995E2,1.562616E2,3.6250977E2,4.5250513E2,7.5888947E2],"tree_param":{"num_deleted":"0","num_feature":"25","num_nodes":"15","size_leaf_vector":"1"}},{"base_weights":[-5.8743935E-3,3.4345385E-2,-2.9051653E-1,-1.5982047E-1,8.705474E-2,-4.5567894E-1,3.264631E-1,-2.228034E-2,-0E0,-1.3447929E-2,5.3866617E-3,-1.0279242E-2,-4.265746E-2,-5.294494E-3,3.5368815E-2],"categories":[],"categories_nodes":[],"categories_segments":[],"categories_sizes":[],"default_left":[0,0,0,0,0,0,0,0,0,0,0,0,0,0,0],"id":63,"left_children":[1,3,5,7,9,11,13,-1,-1,-1,-1,-1,-1,-1,-1],"loss_changes":[3.2130283E1,2.5033554E1,3.6297607E1,2.5219507E1,1.8375507E1,2.740372E1,1.4567076E1,0E0,0E0,0E0,0E0,0E0,0E0,0E0,0E0],"parents":[2147483647,0,0,1,1,2,2,3,3,4,4,5,5,6,6],"right_children":[2,4,6,8,10,12,14,-1,-1,-1,-1,-1,-1,-1,-1],"split_conditions":[1E0,4.11007E5,8.888068E6,4.692037E6,1.6855349E-1,5.379596E-1,3.162197E6,-2.228034E-2,-0E0,-1.3447929E-2,5.3866617E-3,-1.0279242E-2,-4.265746E-2,-5.294494E-3,3.5368815E-2],"split_indices":[16,1,3,3,11,10,2,0,0,0,0,0,0,0,0],"split_type":[0,0,0,0,0,0,0,0,0,0,0,0,0,0,0],"sum_hessian":[2.7811033E3,2.4386628E3,3.4244037E2,5.155619E2,1.9231011E3,2.7210303E2,7.0337326E1,1.7163724E2,3.4392462E2,1.2047458E2,1.8026265E3,1.8173666E2,9.036638E1,3.5262016E1,3.507531E1],"tree_param":{"num_deleted":"0","num_feature":"25","num_nodes":"15","size_leaf_vector":"1"}},{"base_weights":[-3.2787248E-3,-4.4045845E-1,2.1386137E-2,-7.5308657E-1,-1.3848725E-1,-1.7965595E-1,7.82447E-2,2.0302108E-3,-4.0145718E-2,-2.3090314E-2,1.0751924E-2,8.247531E-3,-1.5218975E-2,1.8599321E-3,1.2349912E-2],"categories":[],"categories_nodes":[],"categories_segments":[],"categories_sizes":[],"default_left":[0,0,0,0,0,0,0,0,0,0,0,0,0,0,0],"id":64,"left_children":[1,3,5,7,9,11,13,-1,-1,-1,-1,-1,-1,-1,-1],"loss_changes":[3.0318058E1,1.3011059E1,3.012181E1,5.7407646E0,1.129152E1,2.8816042E1,1.4344058E1,0E0,0E0,0E0,0E0,0E0,0E0,0E0,0E0],"parents":[2147483647,0,0,1,1,2,2,3,3,4,4,5,5,6,6],"right_children":[2,4,6,8,10,12,14,-1,-1,-1,-1,-1,-1,-1,-1],"split_conditions":[1.6855349E-1,4.5E1,4.11007E5,4.23994E5,1.4E1,2.6213494E-1,6.12E2,2.0302108E-3,-4.0145718E-2,-2.3090314E-2,1.0751924E-2,8.247531E-3,-1.5218975E-2,1.8599321E-3,1.2349912E-2],"split_indices":[11,0,1,2,8,10,6,0,0,0,0,0,0,0,0],"split_type":[0,0,0,0,0,0,0,0,0,0,0,0,0,0,0],"sum_hessian":[2.7746355E3,1.4498466E2,2.629651E3,6.625457E1,7.8730095E1,5.7454364E2,2.0551072E3,6.061218E0,6.0193348E1,4.0496616E1,3.8233482E1,1.6083554E2,4.137081E2,1.6960723E3,3.590349E2],"tree_param":{"num_deleted":"0","num_feature":"25","num_nodes":"15","size_leaf_vector":"1"}},{"base_weights":[6.8785646E-3,-1.1303421E-1,1.0950201E-1,-6.98797E-1,-6.193754E-2,5.2471783E-2,2.7370477E-1,-4.7326077E-2,1.459321E-3,-1.0070431E-2,3.8754062E-3,-7.199182E-3,5.7864795E-3,1.6775664E-2,-2.8475577E-2],"categories":[],"categories_nodes":[],"categories_segments":[],"categories_sizes":[],"default_left":[0,0,0,0,0,0,0,0,0,0,0,0,0,0,0],"id":65,"left_children":[1,3,5,7,9,11,13,-1,-1,-1,-1,-1,-1,-1,-1],"loss_changes":[3.4622776E1,3.7987526E1,1.3922335E1,2.2647E1,2.5716341E1,1.5962383E1,2.7097961E1,0E0,0E0,0E0,0E0,0E0,0E0,0E0,0E0],"parents":[2147483647,0,0,1,1,2,2,3,3,4,4,5,5,6,6],"right_children":[2,4,6,8,10,12,14,-1,-1,-1,-1,-1,-1,-1,-1],"split_conditions":[4.5E1,5.6228205E6,1.193048E6,8.99228E5,1E0,3.781575E6,7.184528E-1,-4.7326077E-2,1.459321E-3,-1.0070431E-2,3.8754062E-3,-7.199182E-3,5.7864795E-3,1.6775664E-2,-2.8475577E-2],"split_indices":[0,4,1,1,17,3,10,0,0,0,0,0,0,0,0],"split_type":[0,0,0,0,0,0,0,0,0,0,0,0,0,0,0],"sum_hessian":[2.803223E3,1.2893252E3,1.5138978E3,9.702338E1,1.1923019E3,1.131931E3,3.8196674E2,6.8594955E1,2.8428423E1,5.853191E2,6.069828E2,2.8187872E2,8.500523E2,3.542655E2,2.770125E1],"tree_param":{"num_deleted":"0","num_feature":"25","num_nodes":"15","size_leaf_vector":"1"}},{"base_weights":[-4.668325E-3,-1.24166325E-1,8.6101644E-2,-3.666999E-1,-1.1195123E-2,1.1093691E-1,-2.6778004E-1,-3.559647E-2,-7.078845E-3,-6.2314607E-3,1.2276067E-2,3.8443457E-3,2.487068E-2,-4.3036174E-2,-0E0],"categories":[],"categories_nodes":[],"categories_segments":[],"categories_sizes":[],"default_left":[0,0,0,0,0,0,0,0,0,0,0,0,0,0,0],"id":66,"left_children":[1,3,5,7,9,11,13,-1,-1,-1,-1,-1,-1,-1,-1],"loss_changes":[3.0334215E1,3.2851707E1,1.3973796E1,3.0427395E1,2.6742928E1,1.7893753E1,1.713007E1,0E0,0E0,0E0,0E0,0E0,0E0,0E0,0E0],"parents":[2147483647,0,0,1,1,2,2,3,3,4,4,5,5,6,6],"right_children":[2,4,6,8,10,12,14,-1,-1,-1,-1,-1,-1,-1,-1],"split_conditions":[1E0,9.452892E6,4.620693E6,1E0,5.5E1,4.392682E6,4.306469E6,-3.559647E-2,-7.078845E-3,-6.2314607E-3,1.2276067E-2,3.8443457E-3,2.487068E-2,-4.3036174E-2,-0E0],"split_indices":[24,4,2,17,0,2,3,0,0,0,0,0,0,0,0],"split_type":[0,0,0,0,0,0,0,0,0,0,0,0,0,0,0],"sum_hessian":[2.7837483E3,1.2042078E3,1.5795404E3,3.7696426E2,8.272435E2,1.4811648E3,9.8375725E1,1.3205188E2,2.4491237E2,5.762683E2,2.5097523E2,1.3863042E3,9.486053E1,2.499003E1,7.33857E1],"tree_param":{"num_deleted":"0","num_feature":"25","num_nodes":"15","size_leaf_vector":"1"}},{"base_weights":[3.4265788E-3,-1.0821404E-1,9.824781E-2,-6.855687E-1,-5.7862595E-2,1.3668288E-1,-1.6398337E-1,-4.681235E-2,1.9435415E-3,-1.0154851E-2,2.6413314E-3,1.7733032E-2,4.2322935E-3,-4.5239575E-2,-1.0305371E-3],"categories":[],"categories_nodes":[],"categories_segments":[],"categories_sizes":[],"default_left":[0,0,0,0,0,0,0,0,0,0,0,0,0,0,0],"id":67,"left_children":[1,3,5,7,9,11,13,-1,-1,-1,-1,-1,-1,-1,-1],"loss_changes":[2.9507051E1,3.6399178E1,1.5326171E1,2.2471909E1,2.0879778E1,1.4422676E1,2.0771236E1,0E0,0E0,0E0,0E0,0E0,0E0,0E0,0E0],"parents":[2147483647,0,0,1,1,2,2,3,3,4,4,5,5,6,6],"right_children":[2,4,6,8,10,12,14,-1,-1,-1,-1,-1,-1,-1,-1],"split_conditions":[4.5E1,5.6228205E6,1E0,8.99228E5,1E0,7.3268E5,3.9589468E-1,-4.681235E-2,1.9435415E-3,-1.0154851E-2,2.6413314E-3,1.7733032E-2,4.2322935E-3,-4.5239575E-2,-1.0305371E-3],"split_indices":[0,4,16,1,24,2,11,0,0,0,0,0,0,0,0],"split_type":[0,0,0,0,0,0,0,0,0,0,0,0,0,0,0],"sum_hessian":[2.7775618E3,1.2719124E3,1.5056494E3,9.5614784E1,1.1762976E3,1.3176924E3,1.8795706E2,6.738089E1,2.8233896E1,4.9741537E2,6.788822E2,2.1535243E2,1.10234E3,2.3596308E1,1.6436075E2],"tree_param":{"num_deleted":"0","num_feature":"25","num_nodes":"15","size_leaf_vector":"1"}},{"base_weights":[-1.8735573E-2,-1.4952518E-1,7.021804E-2,-3.4495264E-1,-1.2253782E-2,1.5974163E-1,-4.509867E-2,-2.0518878E-2,2.3251085E-3,-4.2776433E-3,1.8400548E-2,-3.0166404E-3,1.2046662E-2,1.3751921E-3,-1.9233406E-2],"categories":[],"categories_nodes":[],"categories_segments":[],"categories_sizes":[],"default_left":[0,0,0,0,0,0,0,0,0,0,0,0,0,0,0],"id":68,"left_children":[1,3,5,7,9,11,13,-1,-1,-1,-1,-1,-1,-1,-1],"loss_changes":[3.2209015E1,2.9819466E1,1.7074429E1,1.5756622E1,2.0471975E1,1.9396091E1,1.9320112E1,0E0,0E0,0E0,0E0,0E0,0E0,0E0,0E0],"parents":[2147483647,0,0,1,1,2,2,3,3,4,4,5,5,6,6],"right_children":[2,4,6,8,10,12,14,-1,-1,-1,-1,-1,-1,-1,-1],"split_conditions":[4.3E1,1E0,4.742139E-1,6.2E2,8.817532E6,5.42049E5,4E0,-2.0518878E-2,2.3251085E-3,-4.2776433E-3,1.8400548E-2,-3.0166404E-3,1.2046662E-2,1.3751921E-3,-1.9233406E-2],"split_indices":[0,24,10,6,3,1,5,0,0,0,0,0,0,0,0],"split_type":[0,0,0,0,0,0,0,0,0,0,0,0,0,0,0],"sum_hessian":[2.7537446E3,1.11648E3,1.6372646E3,4.5528723E2,6.611928E2,9.2399713E2,7.132676E2,3.7563107E2,7.965617E1,5.5840094E2,1.0279186E2,2.6941763E2,6.545795E2,5.935193E2,1.1974829E2],"tree_param":{"num_deleted":"0","num_feature":"25","num_nodes":"15","size_leaf_vector":"1"}},{"base_weights":[2.2843039E-2,6.0156733E-2,-2.3705895E-1,-5.4716304E-2,1.40863E-1,-3.9399645E-1,3.8188794E-1,-2.8219583E-2,-4.0209343E-4,1.973407E-2,4.487006E-3,-3.86092E-2,-3.8602198E-3,4.134498E-2,-5.39923E-3],"categories":[],"categories_nodes":[],"categories_segments":[],"categories_sizes":[],"default_left":[0,0,0,0,0,0,0,0,0,0,0,0,0,0,0],"id":69,"left_children":[1,3,5,7,9,11,13,-1,-1,-1,-1,-1,-1,-1,-1],"loss_changes":[2.7100319E1,2.2857174E1,3.480977E1,2.470993E1,1.7921585E1,3.576288E1,1.843335E1,0E0,0E0,0E0,0E0,0E0,0E0,0E0,0E0],"parents":[2147483647,0,0,1,1,2,2,3,3,4,4,5,5,6,6],"right_children":[2,4,6,8,10,12,14,-1,-1,-1,-1,-1,-1,-1,-1],"split_conditions":[1E0,4.3E1,6.12E2,5.6228205E6,6.32091E5,1.1272208E7,4.0431798E-1,-2.8219583E-2,-4.0209343E-4,1.973407E-2,4.487006E-3,-3.86092E-2,-3.8602198E-3,4.134498E-2,-5.39923E-3],"split_indices":[16,0,6,4,2,4,10,0,0,0,0,0,0,0,0],"split_type":[0,0,0,0,0,0,0,0,0,0,0,0,0,0,0],"sum_hessian":[2.794298E3,2.4493638E3,3.4493433E2,1.00785034E3,1.4415134E3,2.775847E2,6.734965E1,7.3980064E1,9.3387024E2,2.0339E2,1.2381234E3,1.1489727E2,1.6268741E2,3.278011E1,3.456954E1],"tree_param":{"num_deleted":"0","num_feature":"25","num_nodes":"15","size_leaf_vector":"1"}},{"base_weights":[-3.4566815E-3,-4.1085777E-1,1.9130008E-2,-8.381195E-1,-1.6144459E-1,-3.7651192E-2,2.0076211E-1,-4.442288E-2,8.712451E-3,-0E0,-4.0779084E-2,-9.625004E-3,3.9598583E-3,4.7883263E-4,1.9474918E-2],"categories":[],"categories_nodes":[],"categories_segments":[],"categories_sizes":[],"default_left":[0,0,0,0,0,0,0,0,0,0,0,0,0,0,0],"id":70,"left_children":[1,3,5,7,9,11,13,-1,-1,-1,-1,-1,-1,-1,-1],"loss_changes":[2.5709404E1,1.4237947E1,2.7154675E1,6.2990303E0,1.1486093E1,3.963624E1,2.447179E1,0E0,0E0,0E0,0E0,0E0,0E0,0E0,0E0],"parents":[2147483647,0,0,1,1,2,2,3,3,4,4,5,5,6,6],"right_children":[2,4,6,8,10,12,14,-1,-1,-1,-1,-1,-1,-1,-1],"split_conditions":[1.6855349E-1,1E0,1.193048E6,6.76E2,3.572105E-2,1E0,4.9841484E-1,-4.442288E-2,8.712451E-3,-0E0,-4.0779084E-2,-9.625004E-3,3.9598583E-3,4.7883263E-4,1.9474918E-2],"split_indices":[11,17,1,6,7,24,11,0,0,0,0,0,0,0,0],"split_type":[0,0,0,0,0,0,0,0,0,0,0,0,0,0,0],"sum_hessian":[2.7544229E3,1.4158942E2,2.6128335E3,4.659996E1,9.498945E1,1.9907764E3,6.220571E2,4.378551E1,2.8144495E0,8.089935E1,1.4090096E1,8.4467926E2,1.1460972E3,3.2848877E2,2.9356833E2],"tree_param":{"num_deleted":"0","num_feature":"25","num_nodes":"15","size_leaf_vector":"1"}},{"base_weights":[4.290137E-3,4.557286E-2,-2.95482E-1,-5.1778033E-2,1.2756096E-1,-4.418128E-1,2.9115942E-1,-2.5003107E-2,-1.0567433E-3,1.687346E-2,4.195041E-3,-3.0677818E-2,3.8644103E-3,4.3711443E-2,-5.851754E-3],"categories":[],"categories_nodes":[],"categories_segments":[],"categories_sizes":[],"default_left":[0,0,0,0,0,0,0,0,0,0,0,0,0,0,0],"id":71,"left_children":[1,3,5,7,9,11,13,-1,-1,-1,-1,-1,-1,-1,-1],"loss_changes":[3.4357773E1,1.9676544E1,2.9598412E1,1.5251247E1,1.1520708E1,2.9185055E1,1.902609E1,0E0,0E0,0E0,0E0,0E0,0E0,0E0,0E0],"parents":[2147483647,0,0,1,1,2,2,3,3,4,4,5,5,6,6],"right_children":[2,4,6,8,10,12,14,-1,-1,-1,-1,-1,-1,-1,-1],"split_conditions":[1E0,4.5E1,6.12E2,1.6855349E-1,6.51681E5,5.6E1,6.36E2,-2.5003107E-2,-1.0567433E-3,1.687346E-2,4.195041E-3,-3.0677818E-2,3.8644103E-3,4.3711443E-2,-5.851754E-3],"split_indices":[16,0,6,11,2,0,6,0,0,0,0,0,0,0,0],"split_type":[0,0,0,0,0,0,0,0,0,0,0,0,0,0,0],"sum_hessian":[2.7795093E3,2.4490198E3,3.304895E2,1.1165906E3,1.3324293E3,2.6650003E2,6.398948E1,5.943848E1,1.0571521E3,1.9032321E2,1.1421061E3,1.9265079E2,7.384923E1,2.3646122E1,4.0343357E1],"tree_param":{"num_deleted":"0","num_feature":"25","num_nodes":"15","size_leaf_vector":"1"}},{"base_weights":[9.043096E-3,9.715908E-2,-9.396595E-2,-2.5626174E-1,1.1996009E-1,-1.2358198E-1,4.6455586E-1,2.5465377E-2,-2.1225885E-2,-6.9674607E-3,7.571645E-3,-1.4553692E-2,-3.764939E-7,-1.1785884E-2,3.785784E-2],"categories":[],"categories_nodes":[],"categories_segments":[],"categories_sizes":[],"default_left":[0,0,0,0,0,0,0,0,0,0,0,0,0,0,0],"id":72,"left_children":[1,3,5,7,9,11,13,-1,-1,-1,-1,-1,-1,-1,-1],"loss_changes":[2.516843E1,1.2134622E1,2.114911E1,1.464995E1,1.4640261E1,2.7023455E1,1.6384747E1,0E0,0E0,0E0,0E0,0E0,0E0,0E0,0E0],"parents":[2147483647,0,0,1,1,2,2,3,3,4,4,5,5,6,6],"right_children":[2,4,6,8,10,12,14,-1,-1,-1,-1,-1,-1,-1,-1],"split_conditions":[4.5631486E-1,1.6038E5,1.6539287E7,4.46759E5,7E0,1E0,2.7645165E-2,2.5465377E-2,-2.1225885E-2,-6.9674607E-3,7.571645E-3,-1.4553692E-2,-3.764939E-7,-1.1785884E-2,3.785784E-2],"split_indices":[10,1,4,2,8,24,7,0,0,0,0,0,0,0,0],"split_type":[0,0,0,0,0,0,0,0,0,0,0,0,0,0,0],"sum_hessian":[2.7621045E3,1.4924927E3,1.2696118E3,8.534383E1,1.4071489E3,1.2107406E3,5.8871113E1,1.387257E1,7.147126E1,1.743816E2,1.2327673E3,4.8539893E2,7.2534174E2,1.8330536E1,4.0540573E1],"tree_param":{"num_deleted":"0","num_feature":"25","num_nodes":"15","size_leaf_vector":"1"}},{"base_weights":[-6.692457E-3,-5.1979184E-1,1.4127333E-2,-4.728669E-2,-2.2882473E-1,-4.521368E-2,1.6948116E-1,-2.949021E-2,8.266066E-3,-7.7373143E-3,3.1509148E-3,2.792953E-2,5.7189823E-3],"categories":[],"categories_nodes":[],"categories_segments":[],"categories_sizes":[],"default_left":[0,0,0,0,0,0,0,0,0,0,0,0,0],"id":73,"left_children":[1,3,5,-1,7,9,11,-1,-1,-1,-1,-1,-1],"loss_changes":[2.972155E1,1.2820534E1,2.4485277E1,0E0,1.25606575E1,2.4981085E1,1.4309042E1,0E0,0E0,0E0,0E0,0E0,0E0],"parents":[2147483647,0,0,1,1,2,2,4,4,5,5,6,6],"right_children":[2,4,6,-1,8,10,12,-1,-1,-1,-1,-1,-1],"split_conditions":[7.68964E5,1E0,5.5E1,-4.728669E-2,9.97719E5,1E0,1.5892212E-1,-2.949021E-2,8.266066E-3,-7.7373143E-3,3.1509148E-3,2.792953E-2,5.7189823E-3],"split_indices":[3,17,0,0,1,17,10,0,0,0,0,0,0],"split_type":[0,0,0,0,0,0,0,0,0,0,0,0,0],"sum_hessian":[2.7402512E3,1.0327507E2,2.6369763E3,3.3727486E1,6.9547585E1,1.9075465E3,7.2942975E2,3.4807095E1,3.4740494E1,9.3209015E2,9.7545636E2,7.038248E1,6.5904724E2],"tree_param":{"num_deleted":"0","num_feature":"25","num_nodes":"13","size_leaf_vector":"1"}},{"base_weights":[-2.2782985E-2,-1.3796774E-1,6.3028455E-2,-3.716417E-1,7.6538324E-3,-9.1785103E-1,7.6006725E-2,-3.3611182E-2,-9.1936765E-3,8.8421805E-3,-8.197068E-3,-6.6604234E-2,5.260351E-3,2.1066414E-3,1.7571675E-2],"categories":[],"categories_nodes":[],"categories_segments":[],"categories_sizes":[],"default_left":[0,0,0,0,0,0,0,0,0,0,0,0,0,0,0],"id":74,"left_children":[1,3,5,7,9,11,13,-1,-1,-1,-1,-1,-1,-1,-1],"loss_changes":[2.7115198E1,4.015365E1,1.971754E1,2.5562416E1,2.327534E1,1.1591572E1,1.4073065E1,0E0,0E0,0E0,0E0,0E0,0E0,0E0,0E0],"parents":[2147483647,0,0,1,1,2,2,3,3,4,4,5,5,6,6],"right_children":[2,4,6,8,10,12,14,-1,-1,-1,-1,-1,-1,-1,-1],"split_conditions":[1E0,1.020881E7,1.3E1,4.2E1,4.09843E-1,6.58989E-1,7.6393175E-1,-3.3611182E-2,-9.1936765E-3,8.8421805E-3,-8.197068E-3,-6.6604234E-2,5.260351E-3,2.1066414E-3,1.7571675E-2],"split_indices":[24,4,6,0,10,11,11,0,0,0,0,0,0,0,0],"split_type":[0,0,0,0,0,0,0,0,0,0,0,0,0,0,0],"sum_hessian":[2.7281482E3,1.1668567E3,1.5612915E3,4.4671503E2,7.201416E2,1.491866E1,1.5463728E3,1.4966249E2,2.9705252E2,3.6375812E2,3.5638348E2,9.377796E0,5.5408635E0,1.4017761E3,1.4459676E2],"tree_param":{"num_deleted":"0","num_feature":"25","num_nodes":"15","size_leaf_vector":"1"}},{"base_weights":[-5.421506E-3,-4.984144E-2,2.275767E-1,-1.9041659E-1,5.1391494E-2,4.1857168E-1,1.19645126E-1,-2.0786352E-2,-5.991927E-4,-2.8388523E-3,7.5590513E-3,2.3465756E-2,-3.1866647E-2,1.2894231E-4,2.0826152E-2],"categories":[],"categories_nodes":[],"categories_segments":[],"categories_sizes":[],"default_left":[0,0,0,0,0,0,0,0,0,0,0,0,0,0,0],"id":75,"left_children":[1,3,5,7,9,11,13,-1,-1,-1,-1,-1,-1,-1,-1],"loss_changes":[2.8537544E1,3.3276775E1,8.4503E0,4.229801E1,1.6176785E1,1.3854605E1,1.0474493E1,0E0,0E0,0E0,0E0,0E0,0E0,0E0,0E0],"parents":[2147483647,0,0,1,1,2,2,3,3,4,4,5,5,6,6],"right_children":[2,4,6,8,10,12,14,-1,-1,-1,-1,-1,-1,-1,-1],"split_conditions":[8.7787E6,1E0,1.3078149E7,1E0,4.6E1,9.851698E6,1.6539287E7,-2.0786352E-2,-5.991927E-4,-2.8388523E-3,7.5590513E-3,2.3465756E-2,-3.1866647E-2,1.2894231E-4,2.0826152E-2],"split_indices":[3,24,4,17,0,3,4,0,0,0,0,0,0,0,0],"split_type":[0,0,0,0,0,0,0,0,0,0,0,0,0,0,0],"sum_hessian":[2.7583718E3,2.3226836E3,4.3568823E2,9.733574E2,1.349326E3,1.4952998E2,2.8615826E2,4.0459134E2,5.687661E2,6.604673E2,6.8885876E2,1.4340758E2,6.1223965E0,2.1443658E2,7.172167E1],"tree_param":{"num_deleted":"0","num_feature":"25","num_nodes":"15","size_leaf_vector":"1"}},{"base_weights":[-6.562573E-3,-1.9088897E-1,4.1680694E-2,1.0756028E-1,-3.388954E-1,-3.1590648E-2,1.7390898E-1,-2.7664302E-2,1.1409347E-2,-1.0539132E-2,-4.705359E-2,-9.190321E-3,4.5166453E-3,3.2743553E-3,2.0179069E-2],"categories":[],"categories_nodes":[],"categories_segments":[],"categories_sizes":[],"default_left":[0,0,0,0,0,0,0,0,0,0,0,0,0,0,0],"id":76,"left_children":[1,3,5,7,9,11,13,-1,-1,-1,-1,-1,-1,-1,-1],"loss_changes":[2.4543734E1,2.5666786E1,2.1208498E1,1.7856678E1,2.7501362E1,2.8613695E1,1.9940653E1,0E0,0E0,0E0,0E0,0E0,0E0,0E0,0E0],"parents":[2147483647,0,0,1,1,2,2,3,3,4,4,5,5,6,6],"right_children":[2,4,6,8,10,12,14,-1,-1,-1,-1,-1,-1,-1,-1],"split_conditions":[4.11007E5,3.0149254E-1,5.2E1,1E0,1E0,4.9693498E-1,3.67553E6,-2.7664302E-2,1.1409347E-2,-1.0539132E-2,-4.705359E-2,-9.190321E-3,4.5166453E-3,3.2743553E-3,2.0179069E-2],"split_indices":[1,10,0,5,22,11,2,0,0,0,0,0,0,0,0],"split_type":[0,0,0,0,0,0,0,0,0,0,0,0,0,0,0],"sum_hessian":[2.7383794E3,5.6783936E2,2.17054E3,1.8715227E2,3.806871E2,1.3957839E3,7.74756E2,2.6331467E1,1.608208E2,3.287353E2,5.1951828E1,6.147406E2,7.810434E2,5.509731E2,2.237829E2],"tree_param":{"num_deleted":"0","num_feature":"25","num_nodes":"15","size_leaf_vector":"1"}},{"base_weights":[-1.733252E-3,3.4999464E-2,-2.680899E-1,1.3264342E-2,2.8384638E-1,-4.632732E-1,1.270238E-1,-3.9744396E-3,3.8830428E-3,-3.1514748E-3,3.025919E-2,-3.7976306E-2,-9.010443E-3,-3.608155E-2,1.2655524E-2],"categories":[],"categories_nodes":[],"categories_segments":[],"categories_sizes":[],"default_left":[0,0,0,0,0,0,0,0,0,0,0,0,0,0,0],"id":77,"left_children":[1,3,5,7,9,11,13,-1,-1,-1,-1,-1,-1,-1,-1],"loss_changes":[2.7036293E1,1.28162155E1,2.639264E1,1.4658448E1,2.3987455E1,1.9196491E1,1.4568569E1,0E0,0E0,0E0,0E0,0E0,0E0,0E0,0E0],"parents":[2147483647,0,0,1,1,2,2,3,3,4,4,5,5,6,6],"right_children":[2,4,6,8,10,12,14,-1,-1,-1,-1,-1,-1,-1,-1],"split_conditions":[1E0,1.410575E6,5.4E1,1E0,4.699246E-1,1.1272208E7,3.8659236E-1,-3.9744396E-3,3.8830428E-3,-3.1514748E-3,3.025919E-2,-3.7976306E-2,-9.010443E-3,-3.608155E-2,1.2655524E-2],"split_indices":[16,1,0,17,11,4,11,0,0,0,0,0,0,0,0],"split_type":[0,0,0,0,0,0,0,0,0,0,0,0,0,0,0],"sum_hessian":[2.7363792E3,2.4064294E3,3.2994968E2,2.2207854E3,1.8564415E2,2.2143309E2,1.0851657E2,9.13759E2,1.3070264E3,9.395935E1,9.16848E1,9.454961E1,1.26883484E2,1.0823164E1,9.7693405E1],"tree_param":{"num_deleted":"0","num_feature":"25","num_nodes":"15","size_leaf_vector":"1"}},{"base_weights":[-8.810311E-3,-4.0488932E-1,1.2456738E-2,-9.714195E-1,-1.6171962E-1,9.449481E-2,-8.417739E-2,-5.1081553E-2,-9.803864E-3,1.863393E-2,-1.8175853E-2,-9.549027E-3,6.5595405E-3,-1.1501312E-2,1.0519113E-3],"categories":[],"categories_nodes":[],"categories_segments":[],"categories_sizes":[],"default_left":[0,0,0,0,0,0,0,0,0,0,0,0,0,0,0],"id":78,"left_children":[1,3,5,7,9,11,13,-1,-1,-1,-1,-1,-1,-1,-1],"loss_changes":[2.3332916E1,1.7831608E1,2.0647398E1,1.013176E0,1.3575029E1,1.7936708E1,2.0021618E1,0E0,0E0,0E0,0E0,0E0,0E0,0E0,0E0],"parents":[2147483647,0,0,1,1,2,2,3,3,4,4,5,5,6,6],"right_children":[2,4,6,8,10,12,14,-1,-1,-1,-1,-1,-1,-1,-1],"split_conditions":[1.6855349E-1,7.96447E5,4.5631486E-1,6.904448E-1,5.6228205E6,2.79652E5,1E0,-5.1081553E-2,-9.803864E-3,1.863393E-2,-1.8175853E-2,-9.549027E-3,6.5595405E-3,-1.1501312E-2,1.0519113E-3],"split_indices":[11,1,10,10,4,1,24,0,0,0,0,0,0,0,0],"split_type":[0,0,0,0,0,0,0,0,0,0,0,0,0,0,0],"sum_hessian":[2.729006E3,1.3593193E2,2.5930742E3,3.525135E1,1.0068058E2,1.406436E3,1.1866382E3,2.8584139E1,6.6672106E0,2.6525291E1,7.415529E1,1.743175E2,1.2321185E3,4.7930484E2,7.073334E2],"tree_param":{"num_deleted":"0","num_feature":"25","num_nodes":"15","size_leaf_vector":"1"}},{"base_weights":[-9.454977E-3,-5.1523242E-2,2.0854501E-1,-2.4771553E-1,8.429545E-3,2.3358816E-1,-5.344292E-1,6.284261E-3,-1.929039E-2,-2.5462802E-3,8.210155E-3,1.4394684E-2,-0E0,-4.1273955E-2,1.0047823E-2],"categories":[],"categories_nodes":[],"categories_segments":[],"categories_sizes":[],"default_left":[0,0,0,0,0,0,0,0,0,0,0,0,0,0,0],"id":79,"left_children":[1,3,5,7,9,11,13,-1,-1,-1,-1,-1,-1,-1,-1],"loss_changes":[2.502213E1,2.7218643E1,8.641317E0,3.2553898E1,1.7940668E1,7.0309734E0,5.110437E0,0E0,0E0,0E0,0E0,0E0,0E0,0E0,0E0],"parents":[2147483647,0,0,1,1,2,2,3,3,4,4,5,5,6,6],"right_children":[2,4,6,8,10,12,14,-1,-1,-1,-1,-1,-1,-1,-1],"split_conditions":[8.7787E6,4.57002E5,7.764062E-1,2.653974E-1,5.43E2,5.61E2,5.9E1,6.284261E-3,-1.929039E-2,-2.5462802E-3,8.210155E-3,1.4394684E-2,-0E0,-4.1273955E-2,1.0047823E-2],"split_indices":[3,1,10,10,6,6,0,0,0,0,0,0,0,0,0],"split_type":[0,0,0,0,0,0,0,0,0,0,0,0,0,0,0],"sum_hessian":[2.7290586E3,2.293653E3,4.354056E2,5.357457E2,1.7579073E3,4.25591E2,9.814614E0,1.5529427E2,3.8045145E2,1.2754542E3,4.8245306E2,3.3068234E2,9.490867E1,6.8698807E0,2.9447339E0],"tree_param":{"num_deleted":"0","num_feature":"25","num_nodes":"15","size_leaf_vector":"1"}},{"base_weights":[1.1374814E-2,4.570724E-2,-2.3347457E-1,2.2454269E-1,1.1478182E-2,-3.9453924E-1,3.81642E-1,7.83811E-5,1.8772203E-2,-1.0085825E-2,2.7799215E-3,-3.851884E-2,-4.582415E-3,4.0037137E-2,-4.569952E-3],"categories":[],"categories_nodes":[],"categories_segments":[],"categories_sizes":[],"default_left":[0,0,0,0,0,0,0,0,0,0,0,0,0,0,0],"id":80,"left_children":[1,3,5,7,9,11,13,-1,-1,-1,-1,-1,-1,-1,-1],"loss_changes":[2.2992579E1,1.4595687E1,3.4067192E1,1.41632805E1,2.1144176E1,3.2147797E1,1.6525309E1,0E0,0E0,0E0,0E0,0E0,0E0,0E0,0E0],"parents":[2147483647,0,0,